booster[0]:
0:[f1149<0.5] yes=1,no=2,missing=1
	1:[f632<0.5] yes=3,no=4,missing=3
		3:leaf=-1.5430733
		4:leaf=0.51249516
	2:leaf=1.99830794
booster[1]:
0:[f331<0.5] yes=1,no=2,missing=1
	1:[f671<0.5] yes=3,no=4,missing=3
		3:leaf=-0.511230707
		4:leaf=1.02909005
	2:leaf=5.61787176
booster[2]:
0:[f635<0.5] yes=1,no=2,missing=1
	1:[f1149<0.5] yes=3,no=4,missing=3
		3:leaf=-0.9254089
		4:leaf=0.539939165
	2:[f1550<0.5] yes=5,no=6,missing=5
		5:leaf=1.15154517
		6:leaf=1.7535603
booster[3]:
0:[f3084<0.5] yes=1,no=2,missing=1
	1:[f1530<0.5] yes=3,no=4,missing=3
		3:leaf=-0.207979664
		4:leaf=1.06674147
	2:[f1847<0.5] yes=5,no=6,missing=5
		5:leaf=4.78725195
		6:leaf=13.7258511
booster[4]:
0:[f1149<0.5] yes=1,no=2,missing=1
	1:[f632<0.5] yes=3,no=4,missing=3
		3:leaf=-0.679589927
		4:leaf=0.445433199
	2:leaf=1.04975617
booster[5]:
0:[f1550<0.5] yes=1,no=2,missing=1
	1:[f331<0.5] yes=3,no=4,missing=3
		3:leaf=-0.374615908
		4:leaf=0.296773255
	2:[f632<0.5] yes=5,no=6,missing=5
		5:leaf=0.296773255
		6:leaf=1.20731115
booster[6]:
0:[f671<0.5] yes=1,no=2,missing=1
	1:[f331<0.5] yes=3,no=4,missing=3
		3:leaf=-0.23259303
		4:leaf=0.353928417
	2:[f1530<0.5] yes=5,no=6,missing=5
		5:leaf=0.353928417
		6:leaf=2.24633217
booster[7]:
0:[f1149<0.5] yes=1,no=2,missing=1
	1:[f634<0.5] yes=3,no=4,missing=3
		3:leaf=-0.316453964
		4:leaf=0.512022018
	2:leaf=1.03061593
booster[8]:
0:[f331<0.5] yes=1,no=2,missing=1
	1:[f1242<0.5] yes=3,no=4,missing=3
		3:leaf=-0.176739693
		4:leaf=0.47943002
	2:leaf=1.04894578
booster[9]:
0:[f2885<0.5] yes=1,no=2,missing=1
	1:[f1149<0.5] yes=3,no=4,missing=3
		3:leaf=0.015758425
		4:leaf=0.966631532
	2:leaf=2.74091887
booster[10]:
0:[f331<0.5] yes=1,no=2,missing=1
	1:[f635<0.5] yes=3,no=4,missing=3
		3:leaf=-0.230204105
		4:leaf=0.250709474
	2:leaf=0.963528335
booster[11]:
0:[f1242<0.5] yes=1,no=2,missing=1
	1:[f1149<0.5] yes=3,no=4,missing=3
		3:leaf=-0.0854201838
		4:leaf=0.487172127
	2:leaf=1.01470304
booster[12]:
0:[f736<0.5] yes=1,no=2,missing=1
	1:[f3494<0.5] yes=3,no=4,missing=3
		3:leaf=-0.00686662318
		4:leaf=0.981849611
	2:leaf=2.00185609
booster[13]:
0:[f1530<0.5] yes=1,no=2,missing=1
	1:[f1550<0.5] yes=3,no=4,missing=3
		3:leaf=-0.139650896
		4:leaf=0.182217598
	2:[f671<0.5] yes=5,no=6,missing=5
		5:leaf=0.182217598
		6:leaf=1.09519958
booster[14]:
0:[f331<0.5] yes=1,no=2,missing=1
	1:[f634<0.5] yes=3,no=4,missing=3
		3:leaf=-0.24078916
		4:leaf=0.19762978
	2:leaf=0.895374417
booster[15]:
0:[f1756<0.5] yes=1,no=2,missing=1
	1:[f1149<0.5] yes=3,no=4,missing=3
		3:leaf=-0.0535249449
		4:leaf=0.815170705
	2:leaf=1.64324534
booster[16]:
0:[f1242<0.5] yes=1,no=2,missing=1
	1:[f1146<0.5] yes=3,no=4,missing=3
		3:leaf=-0.0384702608
		4:leaf=0.432264239
	2:leaf=0.882647812
booster[17]:
0:[f674<0.5] yes=1,no=2,missing=1
	1:[f2487<0.5] yes=3,no=4,missing=3
		3:leaf=-0.0044329688
		4:leaf=0.736272991
	2:leaf=1.45885193
booster[18]:
0:[f2746<0.5] yes=1,no=2,missing=1
	1:[f331<0.5] yes=3,no=4,missing=3
		3:leaf=-0.0277931746
		4:leaf=0.418656766
	2:leaf=0.843032658
booster[19]:
0:[f1149<0.5] yes=1,no=2,missing=1
	1:[f634<0.5] yes=3,no=4,missing=3
		3:leaf=-0.1119527
		4:leaf=0.117322713
	2:leaf=0.755646527
booster[20]:
0:[f3494<0.5] yes=1,no=2,missing=1
	1:[f1242<0.5] yes=3,no=4,missing=3
		3:leaf=-0.0342003815
		4:leaf=0.331830084
	2:[f1551<0.5] yes=5,no=6,missing=5
		5:leaf=0.331830084
		6:leaf=1.26530302
booster[21]:
0:[f535<0.5] yes=1,no=2,missing=1
	1:[f331<0.5] yes=3,no=4,missing=3
		3:leaf=-0.017140748
		4:leaf=0.428068846
	2:leaf=0.855092108
booster[22]:
0:[f736<0.5] yes=1,no=2,missing=1
	1:[f1242<0.5] yes=3,no=4,missing=3
		3:leaf=-0.0136859585
		4:leaf=0.469846606
	2:leaf=0.939376831
booster[23]:
0:[f463<0.5] yes=1,no=2,missing=1
	1:[f331<0.5] yes=3,no=4,missing=3
		3:leaf=-0.0102647785
		4:leaf=0.342121512
	2:leaf=0.682564974
booster[24]:
0:[f2487<0.5] yes=1,no=2,missing=1
	1:[f634<0.5] yes=3,no=4,missing=3
		3:leaf=-0.0747984275
		4:leaf=0.0703615621
	2:[f2920<0.5] yes=5,no=6,missing=5
		5:leaf=0.297698587
		6:leaf=1.33534479
booster[25]:
0:[f1872<0.5] yes=1,no=2,missing=1
	1:[f1530<0.5] yes=3,no=4,missing=3
		3:leaf=-0.0784699842
		4:leaf=0.203812063
	2:leaf=1.65248656
booster[26]:
0:[f1149<0.5] yes=1,no=2,missing=1
	1:[f634<0.5] yes=3,no=4,missing=3
		3:leaf=-0.0889022499
		4:leaf=0.0707284361
	2:leaf=0.64041096
booster[27]:
0:[f2885<0.5] yes=1,no=2,missing=1
	1:[f671<0.5] yes=3,no=4,missing=3
		3:leaf=-0.0554172248
		4:leaf=0.19233121
	2:leaf=0.750446379
booster[28]:
0:[f331<0.5] yes=1,no=2,missing=1
	1:[f634<0.5] yes=3,no=4,missing=3
		3:leaf=-0.0825403556
		4:leaf=0.0558351912
	2:leaf=0.62963295
booster[29]:
0:[f1242<0.5] yes=1,no=2,missing=1
	1:[f2746<0.5] yes=3,no=4,missing=3
		3:leaf=-0.0149693051
		4:leaf=0.300311685
	2:leaf=0.605433345
booster[30]:
0:[f1699<0.5] yes=1,no=2,missing=1
	1:[f1756<0.5] yes=3,no=4,missing=3
		3:leaf=-0.0038713587
		4:leaf=0.290256649
	2:leaf=0.575455129
booster[31]:
0:[f1149<0.5] yes=1,no=2,missing=1
	1:[f1146<0.5] yes=3,no=4,missing=3
		3:leaf=-0.00645089708
		4:leaf=0.252850056
	2:leaf=0.505718172
booster[32]:
0:[f2885<0.5] yes=1,no=2,missing=1
	1:[f3494<0.5] yes=3,no=4,missing=3
		3:leaf=-0.00486260792
		4:leaf=0.197941229
	2:leaf=0.393470645
booster[33]:
0:[f1146<0.5] yes=1,no=2,missing=1
	1:[f1530<0.5] yes=3,no=4,missing=3
		3:leaf=-0.015888121
		4:leaf=0.0776510313
	2:leaf=0.287824541
booster[34]:
0:[f634<0.5] yes=1,no=2,missing=1
	1:[f1556<0.5] yes=3,no=4,missing=3
		3:leaf=-0.201632872
		4:leaf=-0.00335936993
	2:[f1550<0.5] yes=5,no=6,missing=5
		5:leaf=-0.00335936993
		6:leaf=0.561786652
booster[35]:
0:[f671<0.5] yes=1,no=2,missing=1
	1:[f331<0.5] yes=3,no=4,missing=3
		3:leaf=0.0222762432
		4:leaf=0.119780309
	2:[f1570<0.5] yes=5,no=6,missing=5
		5:leaf=0.119780309
		6:leaf=0.78563267
booster[36]:
0:[f331<0.5] yes=1,no=2,missing=1
	1:[f635<0.5] yes=3,no=4,missing=3
		3:leaf=-0.110071063
		4:leaf=-0.00112968171
	2:leaf=0.506694615
booster[37]:
0:[f1242<0.5] yes=1,no=2,missing=1
	1:[f3494<0.5] yes=3,no=4,missing=3
		3:leaf=-0.0121181263
		4:leaf=0.203029051
	2:leaf=0.509505153
booster[38]:
0:[f2885<0.5] yes=1,no=2,missing=1
	1:[f1699<0.5] yes=3,no=4,missing=3
		3:leaf=-0.00324065029
		4:leaf=0.145745665
	2:leaf=0.290136248
booster[39]:
0:[f674<0.5] yes=1,no=2,missing=1
	1:[f535<0.5] yes=3,no=4,missing=3
		3:leaf=-0.00323195453
		4:leaf=0.117861167
	2:leaf=0.234340906
booster[40]:
0:[f1699<0.5] yes=1,no=2,missing=1
	1:[f1756<0.5] yes=3,no=4,missing=3
		3:leaf=-0.00737570878
		4:leaf=0.078179419
	2:leaf=0.155224919
booster[41]:
0:[f635<0.5] yes=1,no=2,missing=1
	1:[f1556<0.5] yes=3,no=4,missing=3
		3:leaf=-0.207742304
		4:leaf=0.0026645856
	2:[f1551<0.5] yes=5,no=6,missing=5
		5:leaf=0.00676769391
		6:leaf=0.674790144
booster[42]:
0:[f535<0.5] yes=1,no=2,missing=1
	1:[f1550<0.5] yes=3,no=4,missing=3
		3:leaf=0.0575083345
		4:leaf=0.142534688
	2:leaf=0.221559554
booster[43]:
0:[f1146<0.5] yes=1,no=2,missing=1
	1:[f3494<0.5] yes=3,no=4,missing=3
		3:leaf=-0.00432506623
		4:leaf=0.102172278
	2:leaf=0.204309359
booster[44]:
0:[f1699<0.5] yes=1,no=2,missing=1
	1:[f1756<0.5] yes=3,no=4,missing=3
		3:leaf=-0.00900833029
		4:leaf=0.0677597448
	2:leaf=0.134863347
booster[45]:
0:[f674<0.5] yes=1,no=2,missing=1
	1:[f2885<0.5] yes=3,no=4,missing=3
		3:leaf=0.00469739456
		4:leaf=0.0750065222
	2:leaf=0.14307411
booster[46]:
0:[f2885<0.5] yes=1,no=2,missing=1
	1:[f3494<0.5] yes=3,no=4,missing=3
		3:leaf=-0.000584182795
		4:leaf=0.0490294509
	2:leaf=0.0968360603
booster[47]:
0:[f674<0.5] yes=1,no=2,missing=1
	1:[f535<0.5] yes=3,no=4,missing=3
		3:leaf=-0.00121196778
		4:leaf=0.0357956216
	2:leaf=0.0714384019
booster[48]:
0:[f1699<0.5] yes=1,no=2,missing=1
	1:[f1756<0.5] yes=3,no=4,missing=3
		3:leaf=-0.00825813226
		4:leaf=0.0248713605
	2:leaf=0.049589511
booster[49]:
0:[f1146<0.5] yes=1,no=2,missing=1
	1:[f2885<0.5] yes=3,no=4,missing=3
		3:leaf=0.00653131818
		4:leaf=0.0290166475
	2:leaf=0.0507424735
booster[50]:
0:[f2885<0.5] yes=1,no=2,missing=1
	1:[f3494<0.5] yes=3,no=4,missing=3
		3:leaf=-0.000140102289
		4:leaf=0.0174465217
	2:leaf=0.0344175287
booster[51]:
0:[f1146<0.5] yes=1,no=2,missing=1
	1:[f535<0.5] yes=3,no=4,missing=3
		3:leaf=-0.000505431031
		4:leaf=0.0126582636
	2:leaf=0.0252900291
booster[52]:
0:[f1699<0.5] yes=1,no=2,missing=1
	1:[f1756<0.5] yes=3,no=4,missing=3
		3:leaf=-0.00771792419
		4:leaf=0.0078548165
	2:leaf=0.015574567
booster[53]:
0:[f2885<0.5] yes=1,no=2,missing=1
	1:[f1146<0.5] yes=3,no=4,missing=3
		3:leaf=0.00706168544
		4:leaf=0.0135686826
	2:leaf=0.0198626909
booster[54]:
0:[f535<0.5] yes=1,no=2,missing=1
	1:[f1530<0.5] yes=3,no=4,missing=3
		3:leaf=-0.00413979357
		4:leaf=0.00417986698
	2:leaf=0.00821162015
booster[55]:
0:[f1146<0.5] yes=1,no=2,missing=1
	1:[f3494<0.5] yes=3,no=4,missing=3
		3:leaf=0.00258403504
		4:leaf=0.00725631882
	2:leaf=0.0117001394
booster[56]:
0:[f2885<0.5] yes=1,no=2,missing=1
	1:[f1146<0.5] yes=3,no=4,missing=3
		3:leaf=-2.71003446e-05
		4:leaf=0.00473155128
	2:leaf=0.00939377956
booster[57]:
0:[f2885<0.5] yes=1,no=2,missing=1
	1:[f3494<0.5] yes=3,no=4,missing=3
		3:leaf=-5.29200661e-05
		4:leaf=0.00237495219
	2:leaf=0.00469300011
booster[58]:
0:[f1146<0.5] yes=1,no=2,missing=1
	1:[f2885<0.5] yes=3,no=4,missing=3
		3:leaf=-9.17927173e-06
		4:leaf=0.00174321863
	2:leaf=0.00345692295
booster[59]:
0:[f1699<0.5] yes=1,no=2,missing=1
	1:[f1756<0.5] yes=3,no=4,missing=3
		3:leaf=-0.00759200845
		4:leaf=0.00090355851
	2:leaf=0.00179189409
booster[60]:
0:leaf=0.00730856461
booster[61]:
0:[f3494<0.5] yes=1,no=2,missing=1
	1:[f1853<0.5] yes=3,no=4,missing=3
		3:leaf=-0.00408518687
		4:leaf=0.000805241347
	2:[f1551<0.5] yes=5,no=6,missing=5
		5:leaf=0.000805241347
		6:leaf=1.17771542
booster[62]:
0:[f535<0.5] yes=1,no=2,missing=1
	1:[f1530<0.5] yes=3,no=4,missing=3
		3:leaf=-0.00886794273
		4:leaf=-0.000846312265
	2:leaf=0.00258201105
booster[63]:
0:[f1146<0.5] yes=1,no=2,missing=1
	1:[f2885<0.5] yes=3,no=4,missing=3
		3:leaf=0.00304249697
		4:leaf=0.00575523498
	2:leaf=0.00838005636
booster[64]:
0:[f1146<0.5] yes=1,no=2,missing=1
	1:[f2885<0.5] yes=3,no=4,missing=3
		3:leaf=2.71140761e-05
		4:leaf=0.00212753634
	2:leaf=0.00416257698
booster[65]:
0:[f2885<0.5] yes=1,no=2,missing=1
	1:[f1146<0.5] yes=3,no=4,missing=3
		3:leaf=3.36363399e-07
		4:leaf=0.00147606421
	2:leaf=0.00291758031
booster[66]:
0:[f1699<0.5] yes=1,no=2,missing=1
	1:[f1756<0.5] yes=3,no=4,missing=3
		3:leaf=-0.00761533389
		4:leaf=0.000678033684
	2:leaf=0.00133831892
booster[67]:
0:leaf=0.00733354362
booster[68]:
0:[f2885<0.5] yes=1,no=2,missing=1
	1:[f1146<0.5] yes=3,no=4,missing=3
		3:leaf=1.63710993e-05
		4:leaf=0.000804919866
	2:leaf=0.0015693272
booster[69]:
0:[f1146<0.5] yes=1,no=2,missing=1
	1:[f2885<0.5] yes=3,no=4,missing=3
		3:leaf=7.19760521e-07
		4:leaf=0.000536488427
	2:leaf=0.00105935324
booster[70]:
0:leaf=1.68998376e-05
booster[71]:
0:leaf=3.97305826e-07
booster[72]:
0:leaf=3.51986778e-08
booster[73]:
0:leaf=3.27675806e-08
booster[74]:
0:leaf=3.08227044e-08
booster[75]:
0:leaf=2.93640454e-08
booster[76]:
0:leaf=2.93640454e-08
booster[77]:
0:leaf=2.88778246e-08
booster[78]:
0:leaf=2.88778246e-08
booster[79]:
0:leaf=2.88778246e-08
booster[80]:
0:leaf=2.79053864e-08
booster[81]:
0:leaf=2.79053864e-08
booster[82]:
0:leaf=2.79053864e-08
booster[83]:
0:leaf=2.79053864e-08
booster[84]:
0:leaf=2.45018512e-08
booster[85]:
0:leaf=2.45018512e-08
booster[86]:
0:leaf=2.45018512e-08
booster[87]:
0:leaf=2.01258761e-08
booster[88]:
0:leaf=2.01258761e-08
booster[89]:
0:leaf=2.01258761e-08
booster[90]:
0:leaf=2.01258761e-08
booster[91]:
0:leaf=1.91534362e-08
booster[92]:
0:leaf=1.91534362e-08
booster[93]:
0:leaf=1.91534362e-08
booster[94]:
0:leaf=1.8180998e-08
booster[95]:
0:leaf=1.7694779e-08
booster[96]:
0:leaf=1.7694779e-08
booster[97]:
0:leaf=1.7694779e-08
booster[98]:
0:leaf=1.72085599e-08
booster[99]:
0:leaf=1.38050229e-08
booster[100]:
0:leaf=1.38050229e-08
booster[101]:
0:leaf=1.38050229e-08
booster[102]:
0:leaf=1.38050229e-08
booster[103]:
0:leaf=1.38050229e-08
booster[104]:
0:leaf=1.33188038e-08
booster[105]:
0:leaf=1.33188038e-08
booster[106]:
0:leaf=1.33188038e-08
booster[107]:
0:leaf=1.33188038e-08
booster[108]:
0:leaf=1.33188038e-08
booster[109]:
0:leaf=1.33188038e-08
booster[110]:
0:leaf=1.33188038e-08
booster[111]:
0:leaf=1.33188038e-08
booster[112]:
0:leaf=1.33188038e-08
booster[113]:
0:leaf=1.33188038e-08
booster[114]:
0:leaf=1.33188038e-08
booster[115]:
0:leaf=1.33188038e-08
booster[116]:
0:leaf=1.33188038e-08
booster[117]:
0:leaf=1.33188038e-08
booster[118]:
0:leaf=1.28325839e-08
booster[119]:
0:leaf=1.28325839e-08
booster[120]:
0:leaf=1.28325839e-08
booster[121]:
0:leaf=1.28325839e-08
booster[122]:
0:leaf=1.28325839e-08
booster[123]:
0:leaf=1.28325839e-08
booster[124]:
0:leaf=1.28325839e-08
booster[125]:
0:leaf=1.28325839e-08
booster[126]:
0:leaf=1.28325839e-08
booster[127]:
0:leaf=1.28325839e-08
booster[128]:
0:leaf=1.28325839e-08
booster[129]:
0:leaf=1.28325839e-08
booster[130]:
0:leaf=1.28325839e-08
booster[131]:
0:leaf=1.28325839e-08
booster[132]:
0:leaf=1.28325839e-08
booster[133]:
0:leaf=1.28325839e-08
booster[134]:
0:leaf=1.28325839e-08
booster[135]:
0:leaf=1.28325839e-08
booster[136]:
0:leaf=1.28325839e-08
booster[137]:
0:leaf=1.23463648e-08
booster[138]:
0:leaf=1.23463648e-08
booster[139]:
0:leaf=1.23463648e-08
booster[140]:
0:leaf=1.23463648e-08
booster[141]:
0:leaf=1.23463648e-08
booster[142]:
0:leaf=1.23463648e-08
booster[143]:
0:leaf=1.23463648e-08
booster[144]:
0:leaf=1.23463648e-08
booster[145]:
0:leaf=1.23463648e-08
booster[146]:
0:leaf=1.23463648e-08
booster[147]:
0:leaf=1.23463648e-08
booster[148]:
0:leaf=1.23463648e-08
booster[149]:
0:leaf=1.23463648e-08
booster[150]:
0:leaf=1.23463648e-08
booster[151]:
0:leaf=1.23463648e-08
booster[152]:
0:leaf=1.23463648e-08
booster[153]:
0:leaf=1.23463648e-08
booster[154]:
0:leaf=1.23463648e-08
booster[155]:
0:leaf=1.23463648e-08
booster[156]:
0:leaf=1.18601458e-08
booster[157]:
0:leaf=1.18601458e-08
booster[158]:
0:leaf=1.18601458e-08
booster[159]:
0:leaf=1.18601458e-08
booster[160]:
0:leaf=1.18601458e-08
booster[161]:
0:leaf=1.13739258e-08
booster[162]:
0:leaf=1.13739258e-08
booster[163]:
0:leaf=1.13739258e-08
booster[164]:
0:leaf=1.13739258e-08
booster[165]:
0:leaf=1.13739258e-08
booster[166]:
0:leaf=1.13739258e-08
booster[167]:
0:leaf=1.13739258e-08
booster[168]:
0:leaf=1.13739258e-08
booster[169]:
0:leaf=1.13739258e-08
booster[170]:
0:leaf=1.13739258e-08
booster[171]:
0:leaf=1.13739258e-08
booster[172]:
0:leaf=1.13739258e-08
booster[173]:
0:leaf=1.13739258e-08
booster[174]:
0:leaf=1.13739258e-08
booster[175]:
0:leaf=1.13739258e-08
booster[176]:
0:leaf=1.13739258e-08
booster[177]:
0:leaf=1.13739258e-08
booster[178]:
0:leaf=1.13739258e-08
booster[179]:
0:leaf=1.13739258e-08
booster[180]:
0:leaf=1.08877067e-08
booster[181]:
0:leaf=1.08877067e-08
booster[182]:
0:leaf=1.08877067e-08
booster[183]:
0:leaf=1.08877067e-08
booster[184]:
0:leaf=1.08877067e-08
booster[185]:
0:leaf=1.08877067e-08
booster[186]:
0:leaf=1.08877067e-08
booster[187]:
0:leaf=1.08877067e-08
booster[188]:
0:leaf=1.08877067e-08
booster[189]:
0:leaf=1.08877067e-08
booster[190]:
0:leaf=1.08877067e-08
booster[191]:
0:leaf=1.08877067e-08
booster[192]:
0:leaf=1.08877067e-08
booster[193]:
0:leaf=1.08877067e-08
booster[194]:
0:leaf=1.08877067e-08
booster[195]:
0:leaf=1.08877067e-08
booster[196]:
0:leaf=1.08877067e-08
booster[197]:
0:leaf=1.08877067e-08
booster[198]:
0:leaf=1.08877067e-08
booster[199]:
0:leaf=1.04014868e-08
booster[200]:
0:leaf=1.04014868e-08
booster[201]:
0:leaf=1.04014868e-08
booster[202]:
0:leaf=1.04014868e-08
booster[203]:
0:leaf=1.04014868e-08
booster[204]:
0:leaf=1.04014868e-08
booster[205]:
0:leaf=1.04014868e-08
booster[206]:
0:leaf=1.04014868e-08
booster[207]:
0:leaf=1.04014868e-08
booster[208]:
0:leaf=1.04014868e-08
booster[209]:
0:leaf=1.04014868e-08
booster[210]:
0:leaf=1.04014868e-08
booster[211]:
0:leaf=1.04014868e-08
booster[212]:
0:leaf=1.04014868e-08
booster[213]:
0:leaf=1.04014868e-08
booster[214]:
0:leaf=1.04014868e-08
booster[215]:
0:leaf=1.04014868e-08
booster[216]:
0:leaf=1.04014868e-08
booster[217]:
0:leaf=9.91526772e-09
booster[218]:
0:leaf=9.91526772e-09
booster[219]:
0:leaf=9.91526772e-09
booster[220]:
0:leaf=9.91526772e-09
booster[221]:
0:leaf=9.91526772e-09
booster[222]:
0:leaf=9.91526772e-09
booster[223]:
0:leaf=9.91526772e-09
booster[224]:
0:leaf=9.91526772e-09
booster[225]:
0:leaf=9.91526772e-09
booster[226]:
0:leaf=9.91526772e-09
booster[227]:
0:leaf=9.91526772e-09
booster[228]:
0:leaf=9.91526772e-09
booster[229]:
0:leaf=9.91526772e-09
booster[230]:
0:leaf=9.91526772e-09
booster[231]:
0:leaf=9.91526772e-09
booster[232]:
0:leaf=9.42904865e-09
booster[233]:
0:leaf=9.42904865e-09
booster[234]:
0:leaf=9.42904865e-09
booster[235]:
0:leaf=9.42904865e-09
booster[236]:
0:leaf=9.42904865e-09
booster[237]:
0:leaf=9.42904865e-09
booster[238]:
0:leaf=9.42904865e-09
booster[239]:
0:leaf=9.42904865e-09
booster[240]:
0:leaf=9.42904865e-09
booster[241]:
0:leaf=9.42904865e-09
booster[242]:
0:leaf=9.42904865e-09
booster[243]:
0:leaf=9.42904865e-09
booster[244]:
0:leaf=9.42904865e-09
booster[245]:
0:leaf=9.42904865e-09
booster[246]:
0:leaf=9.42904865e-09
booster[247]:
0:leaf=9.42904865e-09
booster[248]:
0:leaf=9.42904865e-09
booster[249]:
0:leaf=9.42904865e-09
booster[250]:
0:leaf=8.9428287e-09
booster[251]:
0:leaf=8.9428287e-09
booster[252]:
0:leaf=8.9428287e-09
booster[253]:
0:leaf=8.9428287e-09
booster[254]:
0:leaf=8.9428287e-09
booster[255]:
0:leaf=8.9428287e-09
booster[256]:
0:leaf=8.9428287e-09
booster[257]:
0:leaf=8.9428287e-09
booster[258]:
0:leaf=8.9428287e-09
booster[259]:
0:leaf=8.9428287e-09
booster[260]:
0:leaf=8.9428287e-09
booster[261]:
0:leaf=8.9428287e-09
booster[262]:
0:leaf=8.9428287e-09
booster[263]:
0:leaf=8.9428287e-09
booster[264]:
0:leaf=8.9428287e-09
booster[265]:
0:leaf=8.9428287e-09
booster[266]:
0:leaf=8.9428287e-09
booster[267]:
0:leaf=8.9428287e-09
booster[268]:
0:leaf=8.9428287e-09
booster[269]:
0:leaf=8.45660963e-09
booster[270]:
0:leaf=8.45660963e-09
booster[271]:
0:leaf=8.45660963e-09
booster[272]:
0:leaf=8.45660963e-09
booster[273]:
0:leaf=8.45660963e-09
booster[274]:
0:leaf=7.97038968e-09
booster[275]:
0:leaf=7.97038968e-09
booster[276]:
0:leaf=7.97038968e-09
booster[277]:
0:leaf=7.97038968e-09
booster[278]:
0:leaf=7.97038968e-09
booster[279]:
0:leaf=7.97038968e-09
booster[280]:
0:leaf=7.97038968e-09
booster[281]:
0:leaf=7.97038968e-09
booster[282]:
0:leaf=7.97038968e-09
booster[283]:
0:leaf=7.97038968e-09
booster[284]:
0:leaf=7.97038968e-09
booster[285]:
0:leaf=7.97038968e-09
booster[286]:
0:leaf=7.97038968e-09
booster[287]:
0:leaf=7.97038968e-09
booster[288]:
0:leaf=7.97038968e-09
booster[289]:
0:leaf=7.97038968e-09
booster[290]:
0:leaf=7.97038968e-09
booster[291]:
0:leaf=7.97038968e-09
booster[292]:
0:leaf=7.97038968e-09
booster[293]:
0:leaf=7.48417062e-09
booster[294]:
0:leaf=7.48417062e-09
booster[295]:
0:leaf=7.48417062e-09
booster[296]:
0:leaf=7.48417062e-09
booster[297]:
0:leaf=7.48417062e-09
booster[298]:
0:leaf=7.48417062e-09
booster[299]:
0:leaf=7.48417062e-09
booster[300]:
0:leaf=7.48417062e-09
booster[301]:
0:leaf=7.48417062e-09
booster[302]:
0:leaf=7.48417062e-09
booster[303]:
0:leaf=7.48417062e-09
booster[304]:
0:leaf=7.48417062e-09
booster[305]:
0:leaf=7.48417062e-09
booster[306]:
0:leaf=7.48417062e-09
booster[307]:
0:leaf=7.48417062e-09
booster[308]:
0:leaf=7.48417062e-09
booster[309]:
0:leaf=7.48417062e-09
booster[310]:
0:leaf=7.48417062e-09
booster[311]:
0:leaf=7.48417062e-09
booster[312]:
0:leaf=6.99795111e-09
booster[313]:
0:leaf=6.99795111e-09
booster[314]:
0:leaf=6.99795111e-09
booster[315]:
0:leaf=6.99795111e-09
booster[316]:
0:leaf=6.99795111e-09
booster[317]:
0:leaf=6.99795111e-09
booster[318]:
0:leaf=6.99795111e-09
booster[319]:
0:leaf=6.99795111e-09
booster[320]:
0:leaf=6.99795111e-09
booster[321]:
0:leaf=6.99795111e-09
booster[322]:
0:leaf=6.99795111e-09
booster[323]:
0:leaf=6.99795111e-09
booster[324]:
0:leaf=6.99795111e-09
booster[325]:
0:leaf=6.99795111e-09
booster[326]:
0:leaf=6.99795111e-09
booster[327]:
0:leaf=6.99795111e-09
booster[328]:
0:leaf=6.99795111e-09
booster[329]:
0:leaf=6.99795111e-09
booster[330]:
0:leaf=6.99795111e-09
booster[331]:
0:leaf=6.99795111e-09
booster[332]:
0:leaf=6.99795111e-09
booster[333]:
0:leaf=6.99795111e-09
booster[334]:
0:leaf=6.99795111e-09
booster[335]:
0:leaf=6.99795111e-09
booster[336]:
0:leaf=6.99795111e-09
booster[337]:
0:leaf=6.99795111e-09
booster[338]:
0:leaf=6.99795111e-09
booster[339]:
0:leaf=6.99795111e-09
booster[340]:
0:leaf=6.99795111e-09
booster[341]:
0:leaf=6.99795111e-09
booster[342]:
0:leaf=6.99795111e-09
booster[343]:
0:leaf=6.99795111e-09
booster[344]:
0:leaf=6.99795111e-09
booster[345]:
0:leaf=6.99795111e-09
booster[346]:
0:leaf=6.99795111e-09
booster[347]:
0:leaf=6.99795111e-09
booster[348]:
0:leaf=6.99795111e-09
booster[349]:
0:leaf=6.99795111e-09
booster[350]:
0:leaf=6.99795111e-09
booster[351]:
0:leaf=6.99795111e-09
booster[352]:
0:leaf=6.99795111e-09
booster[353]:
0:leaf=6.99795111e-09
booster[354]:
0:leaf=6.99795111e-09
booster[355]:
0:leaf=6.99795111e-09
booster[356]:
0:leaf=6.99795111e-09
booster[357]:
0:leaf=6.99795111e-09
booster[358]:
0:leaf=6.99795111e-09
booster[359]:
0:leaf=6.99795111e-09
booster[360]:
0:leaf=6.99795111e-09
booster[361]:
0:leaf=6.99795111e-09
booster[362]:
0:leaf=6.99795111e-09
booster[363]:
0:leaf=6.99795111e-09
booster[364]:
0:leaf=6.99795111e-09
booster[365]:
0:leaf=6.99795111e-09
booster[366]:
0:leaf=6.99795111e-09
booster[367]:
0:leaf=6.99795111e-09
booster[368]:
0:leaf=6.99795111e-09
booster[369]:
0:leaf=6.99795111e-09
booster[370]:
0:leaf=6.99795111e-09
booster[371]:
0:leaf=6.99795111e-09
booster[372]:
0:leaf=6.99795111e-09
booster[373]:
0:leaf=6.99795111e-09
booster[374]:
0:leaf=6.99795111e-09
booster[375]:
0:leaf=6.99795111e-09
booster[376]:
0:leaf=6.99795111e-09
booster[377]:
0:leaf=6.99795111e-09
booster[378]:
0:leaf=6.99795111e-09
booster[379]:
0:leaf=6.99795111e-09
booster[380]:
0:leaf=6.99795111e-09
booster[381]:
0:leaf=6.99795111e-09
booster[382]:
0:leaf=6.99795111e-09
booster[383]:
0:leaf=6.99795111e-09
booster[384]:
0:leaf=6.99795111e-09
booster[385]:
0:leaf=6.99795111e-09
booster[386]:
0:leaf=6.99795111e-09
booster[387]:
0:leaf=6.99795111e-09
booster[388]:
0:leaf=6.99795111e-09
booster[389]:
0:leaf=6.99795111e-09
booster[390]:
0:leaf=6.99795111e-09
booster[391]:
0:leaf=6.99795111e-09
booster[392]:
0:leaf=6.99795111e-09
booster[393]:
0:leaf=6.99795111e-09
booster[394]:
0:leaf=6.99795111e-09
booster[395]:
0:leaf=6.99795111e-09
booster[396]:
0:leaf=6.99795111e-09
booster[397]:
0:leaf=6.99795111e-09
booster[398]:
0:leaf=6.99795111e-09
booster[399]:
0:leaf=6.99795111e-09
booster[400]:
0:leaf=6.99795111e-09
booster[401]:
0:leaf=6.99795111e-09
booster[402]:
0:leaf=6.99795111e-09
booster[403]:
0:leaf=6.99795111e-09
booster[404]:
0:leaf=6.99795111e-09
booster[405]:
0:leaf=6.99795111e-09
booster[406]:
0:leaf=6.99795111e-09
booster[407]:
0:leaf=6.99795111e-09
booster[408]:
0:leaf=6.99795111e-09
booster[409]:
0:leaf=6.99795111e-09
booster[410]:
0:leaf=6.99795111e-09
booster[411]:
0:leaf=6.99795111e-09
booster[412]:
0:leaf=6.99795111e-09
booster[413]:
0:leaf=6.99795111e-09
booster[414]:
0:leaf=6.99795111e-09
booster[415]:
0:leaf=6.99795111e-09
booster[416]:
0:leaf=6.99795111e-09
booster[417]:
0:leaf=6.99795111e-09
booster[418]:
0:leaf=6.99795111e-09
booster[419]:
0:leaf=6.99795111e-09
booster[420]:
0:leaf=6.99795111e-09
booster[421]:
0:leaf=6.99795111e-09
booster[422]:
0:leaf=6.99795111e-09
booster[423]:
0:leaf=6.99795111e-09
booster[424]:
0:leaf=6.99795111e-09
booster[425]:
0:leaf=6.99795111e-09
booster[426]:
0:leaf=6.99795111e-09
booster[427]:
0:leaf=6.99795111e-09
booster[428]:
0:leaf=6.99795111e-09
booster[429]:
0:leaf=6.99795111e-09
booster[430]:
0:leaf=6.99795111e-09
booster[431]:
0:leaf=6.99795111e-09
booster[432]:
0:leaf=6.99795111e-09
booster[433]:
0:leaf=6.99795111e-09
booster[434]:
0:leaf=6.99795111e-09
booster[435]:
0:leaf=6.99795111e-09
booster[436]:
0:leaf=6.99795111e-09
booster[437]:
0:leaf=6.99795111e-09
booster[438]:
0:leaf=6.99795111e-09
booster[439]:
0:leaf=6.99795111e-09
booster[440]:
0:leaf=6.99795111e-09
booster[441]:
0:leaf=6.99795111e-09
booster[442]:
0:leaf=6.99795111e-09
booster[443]:
0:leaf=6.99795111e-09
booster[444]:
0:leaf=6.99795111e-09
booster[445]:
0:leaf=6.99795111e-09
booster[446]:
0:leaf=6.99795111e-09
booster[447]:
0:leaf=6.99795111e-09
booster[448]:
0:leaf=6.99795111e-09
booster[449]:
0:leaf=6.99795111e-09
booster[450]:
0:leaf=6.99795111e-09
booster[451]:
0:leaf=6.99795111e-09
booster[452]:
0:leaf=6.99795111e-09
booster[453]:
0:leaf=6.99795111e-09
booster[454]:
0:leaf=6.99795111e-09
booster[455]:
0:leaf=6.99795111e-09
booster[456]:
0:leaf=6.99795111e-09
booster[457]:
0:leaf=6.99795111e-09
booster[458]:
0:leaf=6.99795111e-09
booster[459]:
0:leaf=6.99795111e-09
booster[460]:
0:leaf=6.99795111e-09
booster[461]:
0:leaf=6.99795111e-09
booster[462]:
0:leaf=6.99795111e-09
booster[463]:
0:leaf=6.99795111e-09
booster[464]:
0:leaf=6.99795111e-09
booster[465]:
0:leaf=6.99795111e-09
booster[466]:
0:leaf=6.99795111e-09
booster[467]:
0:leaf=6.99795111e-09
booster[468]:
0:leaf=6.99795111e-09
booster[469]:
0:leaf=6.99795111e-09
booster[470]:
0:leaf=6.99795111e-09
booster[471]:
0:leaf=6.99795111e-09
booster[472]:
0:leaf=6.99795111e-09
booster[473]:
0:leaf=6.99795111e-09
booster[474]:
0:leaf=6.99795111e-09
booster[475]:
0:leaf=6.99795111e-09
booster[476]:
0:leaf=6.99795111e-09
booster[477]:
0:leaf=6.99795111e-09
booster[478]:
0:leaf=6.99795111e-09
booster[479]:
0:leaf=6.99795111e-09
booster[480]:
0:leaf=6.99795111e-09
booster[481]:
0:leaf=6.99795111e-09
booster[482]:
0:leaf=6.99795111e-09
booster[483]:
0:leaf=6.99795111e-09
booster[484]:
0:leaf=6.99795111e-09
booster[485]:
0:leaf=6.99795111e-09
booster[486]:
0:leaf=6.99795111e-09
booster[487]:
0:leaf=6.99795111e-09
booster[488]:
0:leaf=6.99795111e-09
booster[489]:
0:leaf=6.99795111e-09
booster[490]:
0:leaf=6.99795111e-09
booster[491]:
0:leaf=6.99795111e-09
booster[492]:
0:leaf=6.99795111e-09
booster[493]:
0:leaf=6.99795111e-09
booster[494]:
0:leaf=6.99795111e-09
booster[495]:
0:leaf=6.99795111e-09
booster[496]:
0:leaf=6.99795111e-09
booster[497]:
0:leaf=6.99795111e-09
booster[498]:
0:leaf=6.99795111e-09
booster[499]:
0:leaf=6.99795111e-09
booster[500]:
0:leaf=6.99795111e-09
booster[501]:
0:leaf=6.99795111e-09
booster[502]:
0:leaf=6.99795111e-09
booster[503]:
0:leaf=6.99795111e-09
booster[504]:
0:leaf=6.99795111e-09
booster[505]:
0:leaf=6.99795111e-09
booster[506]:
0:leaf=6.99795111e-09
booster[507]:
0:leaf=6.99795111e-09
booster[508]:
0:leaf=6.99795111e-09
booster[509]:
0:leaf=6.99795111e-09
booster[510]:
0:leaf=6.99795111e-09
booster[511]:
0:leaf=6.99795111e-09
booster[512]:
0:leaf=6.99795111e-09
booster[513]:
0:leaf=6.99795111e-09
booster[514]:
0:leaf=6.99795111e-09
booster[515]:
0:leaf=6.99795111e-09
booster[516]:
0:leaf=6.99795111e-09
booster[517]:
0:leaf=6.99795111e-09
booster[518]:
0:leaf=6.99795111e-09
booster[519]:
0:leaf=6.99795111e-09
booster[520]:
0:leaf=6.99795111e-09
booster[521]:
0:leaf=6.99795111e-09
booster[522]:
0:leaf=6.99795111e-09
booster[523]:
0:leaf=6.99795111e-09
booster[524]:
0:leaf=6.99795111e-09
booster[525]:
0:leaf=6.99795111e-09
booster[526]:
0:leaf=6.99795111e-09
booster[527]:
0:leaf=6.99795111e-09
booster[528]:
0:leaf=6.99795111e-09
booster[529]:
0:leaf=6.99795111e-09
booster[530]:
0:leaf=6.99795111e-09
booster[531]:
0:leaf=6.99795111e-09
booster[532]:
0:leaf=6.99795111e-09
booster[533]:
0:leaf=6.99795111e-09
booster[534]:
0:leaf=6.99795111e-09
booster[535]:
0:leaf=6.99795111e-09
booster[536]:
0:leaf=6.99795111e-09
booster[537]:
0:leaf=6.99795111e-09
booster[538]:
0:leaf=6.99795111e-09
booster[539]:
0:leaf=6.99795111e-09
booster[540]:
0:leaf=6.99795111e-09
booster[541]:
0:leaf=6.99795111e-09
booster[542]:
0:leaf=6.99795111e-09
booster[543]:
0:leaf=6.99795111e-09
booster[544]:
0:leaf=6.99795111e-09
booster[545]:
0:leaf=6.99795111e-09
booster[546]:
0:leaf=6.99795111e-09
booster[547]:
0:leaf=6.99795111e-09
booster[548]:
0:leaf=6.99795111e-09
booster[549]:
0:leaf=6.99795111e-09
booster[550]:
0:leaf=6.99795111e-09
booster[551]:
0:leaf=6.99795111e-09
booster[552]:
0:leaf=6.99795111e-09
booster[553]:
0:leaf=6.99795111e-09
booster[554]:
0:leaf=6.99795111e-09
booster[555]:
0:leaf=6.99795111e-09
booster[556]:
0:leaf=6.99795111e-09
booster[557]:
0:leaf=6.99795111e-09
booster[558]:
0:leaf=6.99795111e-09
booster[559]:
0:leaf=6.99795111e-09
booster[560]:
0:leaf=6.99795111e-09
booster[561]:
0:leaf=6.99795111e-09
booster[562]:
0:leaf=6.99795111e-09
booster[563]:
0:leaf=6.99795111e-09
booster[564]:
0:leaf=6.99795111e-09
booster[565]:
0:leaf=6.99795111e-09
booster[566]:
0:leaf=6.99795111e-09
booster[567]:
0:leaf=6.99795111e-09
booster[568]:
0:leaf=6.99795111e-09
booster[569]:
0:leaf=6.99795111e-09
booster[570]:
0:leaf=6.99795111e-09
booster[571]:
0:leaf=6.99795111e-09
booster[572]:
0:leaf=6.99795111e-09
booster[573]:
0:leaf=6.99795111e-09
booster[574]:
0:leaf=6.99795111e-09
booster[575]:
0:leaf=6.99795111e-09
booster[576]:
0:leaf=6.99795111e-09
booster[577]:
0:leaf=6.99795111e-09
booster[578]:
0:leaf=6.99795111e-09
booster[579]:
0:leaf=6.99795111e-09
booster[580]:
0:leaf=6.99795111e-09
booster[581]:
0:leaf=6.99795111e-09
booster[582]:
0:leaf=6.99795111e-09
booster[583]:
0:leaf=6.99795111e-09
booster[584]:
0:leaf=6.99795111e-09
booster[585]:
0:leaf=6.99795111e-09
booster[586]:
0:leaf=6.99795111e-09
booster[587]:
0:leaf=6.99795111e-09
booster[588]:
0:leaf=6.99795111e-09
booster[589]:
0:leaf=6.99795111e-09
booster[590]:
0:leaf=6.99795111e-09
booster[591]:
0:leaf=6.99795111e-09
booster[592]:
0:leaf=6.99795111e-09
booster[593]:
0:leaf=6.99795111e-09
booster[594]:
0:leaf=6.99795111e-09
booster[595]:
0:leaf=6.99795111e-09
booster[596]:
0:leaf=6.99795111e-09
booster[597]:
0:leaf=6.99795111e-09
booster[598]:
0:leaf=6.99795111e-09
booster[599]:
0:leaf=6.99795111e-09
booster[600]:
0:leaf=6.99795111e-09
booster[601]:
0:leaf=6.99795111e-09
booster[602]:
0:leaf=6.99795111e-09
booster[603]:
0:leaf=6.99795111e-09
booster[604]:
0:leaf=6.99795111e-09
booster[605]:
0:leaf=6.99795111e-09
booster[606]:
0:leaf=6.99795111e-09
booster[607]:
0:leaf=6.99795111e-09
booster[608]:
0:leaf=6.99795111e-09
booster[609]:
0:leaf=6.99795111e-09
booster[610]:
0:leaf=6.99795111e-09
booster[611]:
0:leaf=6.99795111e-09
booster[612]:
0:leaf=6.99795111e-09
booster[613]:
0:leaf=6.99795111e-09
booster[614]:
0:leaf=6.99795111e-09
booster[615]:
0:leaf=6.99795111e-09
booster[616]:
0:leaf=6.99795111e-09
booster[617]:
0:leaf=6.99795111e-09
booster[618]:
0:leaf=6.99795111e-09
booster[619]:
0:leaf=6.99795111e-09
booster[620]:
0:leaf=6.99795111e-09
booster[621]:
0:leaf=6.99795111e-09
booster[622]:
0:leaf=6.99795111e-09
booster[623]:
0:leaf=6.99795111e-09
booster[624]:
0:leaf=6.99795111e-09
booster[625]:
0:leaf=6.99795111e-09
booster[626]:
0:leaf=6.99795111e-09
booster[627]:
0:leaf=6.99795111e-09
booster[628]:
0:leaf=6.99795111e-09
booster[629]:
0:leaf=6.99795111e-09
booster[630]:
0:leaf=6.99795111e-09
booster[631]:
0:leaf=6.99795111e-09
booster[632]:
0:leaf=6.99795111e-09
booster[633]:
0:leaf=6.99795111e-09
booster[634]:
0:leaf=6.99795111e-09
booster[635]:
0:leaf=6.99795111e-09
booster[636]:
0:leaf=6.99795111e-09
booster[637]:
0:leaf=6.99795111e-09
booster[638]:
0:leaf=6.99795111e-09
booster[639]:
0:leaf=6.99795111e-09
booster[640]:
0:leaf=6.99795111e-09
booster[641]:
0:leaf=6.99795111e-09
booster[642]:
0:leaf=6.99795111e-09
booster[643]:
0:leaf=6.99795111e-09
booster[644]:
0:leaf=6.99795111e-09
booster[645]:
0:leaf=6.99795111e-09
booster[646]:
0:leaf=6.99795111e-09
booster[647]:
0:leaf=6.99795111e-09
booster[648]:
0:leaf=6.99795111e-09
booster[649]:
0:leaf=6.99795111e-09
booster[650]:
0:leaf=6.99795111e-09
booster[651]:
0:leaf=6.99795111e-09
booster[652]:
0:leaf=6.99795111e-09
booster[653]:
0:leaf=6.99795111e-09
booster[654]:
0:leaf=6.99795111e-09
booster[655]:
0:leaf=6.99795111e-09
booster[656]:
0:leaf=6.99795111e-09
booster[657]:
0:leaf=6.99795111e-09
booster[658]:
0:leaf=6.99795111e-09
booster[659]:
0:leaf=6.99795111e-09
booster[660]:
0:leaf=6.99795111e-09
booster[661]:
0:leaf=6.99795111e-09
booster[662]:
0:leaf=6.99795111e-09
booster[663]:
0:leaf=6.99795111e-09
booster[664]:
0:leaf=6.99795111e-09
booster[665]:
0:leaf=6.99795111e-09
booster[666]:
0:leaf=6.99795111e-09
booster[667]:
0:leaf=6.99795111e-09
booster[668]:
0:leaf=6.99795111e-09
booster[669]:
0:leaf=6.99795111e-09
booster[670]:
0:leaf=6.99795111e-09
booster[671]:
0:leaf=6.99795111e-09
booster[672]:
0:leaf=6.99795111e-09
booster[673]:
0:leaf=6.99795111e-09
booster[674]:
0:leaf=6.99795111e-09
booster[675]:
0:leaf=6.99795111e-09
booster[676]:
0:leaf=6.99795111e-09
booster[677]:
0:leaf=6.99795111e-09
booster[678]:
0:leaf=6.99795111e-09
booster[679]:
0:leaf=6.99795111e-09
booster[680]:
0:leaf=6.99795111e-09
booster[681]:
0:leaf=6.99795111e-09
booster[682]:
0:leaf=6.99795111e-09
booster[683]:
0:leaf=6.99795111e-09
booster[684]:
0:leaf=6.99795111e-09
booster[685]:
0:leaf=6.99795111e-09
booster[686]:
0:leaf=6.99795111e-09
booster[687]:
0:leaf=6.99795111e-09
booster[688]:
0:leaf=6.99795111e-09
booster[689]:
0:leaf=6.99795111e-09
booster[690]:
0:leaf=6.99795111e-09
booster[691]:
0:leaf=6.99795111e-09
booster[692]:
0:leaf=6.99795111e-09
booster[693]:
0:leaf=6.99795111e-09
booster[694]:
0:leaf=6.99795111e-09
booster[695]:
0:leaf=6.99795111e-09
booster[696]:
0:leaf=6.99795111e-09
booster[697]:
0:leaf=6.99795111e-09
booster[698]:
0:leaf=6.99795111e-09
booster[699]:
0:leaf=6.99795111e-09
booster[700]:
0:leaf=6.99795111e-09
booster[701]:
0:leaf=6.99795111e-09
booster[702]:
0:leaf=6.99795111e-09
booster[703]:
0:leaf=6.99795111e-09
booster[704]:
0:leaf=6.99795111e-09
booster[705]:
0:leaf=6.99795111e-09
booster[706]:
0:leaf=6.99795111e-09
booster[707]:
0:leaf=6.99795111e-09
booster[708]:
0:leaf=6.99795111e-09
booster[709]:
0:leaf=6.99795111e-09
booster[710]:
0:leaf=6.99795111e-09
booster[711]:
0:leaf=6.99795111e-09
booster[712]:
0:leaf=6.99795111e-09
booster[713]:
0:leaf=6.99795111e-09
booster[714]:
0:leaf=6.99795111e-09
booster[715]:
0:leaf=6.99795111e-09
booster[716]:
0:leaf=6.99795111e-09
booster[717]:
0:leaf=6.99795111e-09
booster[718]:
0:leaf=6.99795111e-09
booster[719]:
0:leaf=6.99795111e-09
booster[720]:
0:leaf=6.99795111e-09
booster[721]:
0:leaf=6.99795111e-09
booster[722]:
0:leaf=6.99795111e-09
booster[723]:
0:leaf=6.99795111e-09
booster[724]:
0:leaf=6.99795111e-09
booster[725]:
0:leaf=6.99795111e-09
booster[726]:
0:leaf=6.99795111e-09
booster[727]:
0:leaf=6.99795111e-09
booster[728]:
0:leaf=6.99795111e-09
booster[729]:
0:leaf=6.99795111e-09
booster[730]:
0:leaf=6.99795111e-09
booster[731]:
0:leaf=6.99795111e-09
booster[732]:
0:leaf=6.99795111e-09
booster[733]:
0:leaf=6.99795111e-09
booster[734]:
0:leaf=6.99795111e-09
booster[735]:
0:leaf=6.99795111e-09
booster[736]:
0:leaf=6.99795111e-09
booster[737]:
0:leaf=6.99795111e-09
booster[738]:
0:leaf=6.99795111e-09
booster[739]:
0:leaf=6.99795111e-09
booster[740]:
0:leaf=6.99795111e-09
booster[741]:
0:leaf=6.99795111e-09
booster[742]:
0:leaf=6.99795111e-09
booster[743]:
0:leaf=6.99795111e-09
booster[744]:
0:leaf=6.99795111e-09
booster[745]:
0:leaf=6.99795111e-09
booster[746]:
0:leaf=6.99795111e-09
booster[747]:
0:leaf=6.99795111e-09
booster[748]:
0:leaf=6.99795111e-09
booster[749]:
0:leaf=6.99795111e-09
booster[750]:
0:leaf=6.99795111e-09
booster[751]:
0:leaf=6.99795111e-09
booster[752]:
0:leaf=6.99795111e-09
booster[753]:
0:leaf=6.99795111e-09
booster[754]:
0:leaf=6.99795111e-09
booster[755]:
0:leaf=6.99795111e-09
booster[756]:
0:leaf=6.99795111e-09
booster[757]:
0:leaf=6.99795111e-09
booster[758]:
0:leaf=6.99795111e-09
booster[759]:
0:leaf=6.99795111e-09
booster[760]:
0:leaf=6.99795111e-09
booster[761]:
0:leaf=6.99795111e-09
booster[762]:
0:leaf=6.99795111e-09
booster[763]:
0:leaf=6.99795111e-09
booster[764]:
0:leaf=6.99795111e-09
booster[765]:
0:leaf=6.99795111e-09
booster[766]:
0:leaf=6.99795111e-09
booster[767]:
0:leaf=6.99795111e-09
booster[768]:
0:leaf=6.99795111e-09
booster[769]:
0:leaf=6.99795111e-09
booster[770]:
0:leaf=6.99795111e-09
booster[771]:
0:leaf=6.99795111e-09
booster[772]:
0:leaf=6.99795111e-09
booster[773]:
0:leaf=6.99795111e-09
booster[774]:
0:leaf=6.99795111e-09
booster[775]:
0:leaf=6.99795111e-09
booster[776]:
0:leaf=6.99795111e-09
booster[777]:
0:leaf=6.99795111e-09
booster[778]:
0:leaf=6.99795111e-09
booster[779]:
0:leaf=6.99795111e-09
booster[780]:
0:leaf=6.99795111e-09
booster[781]:
0:leaf=6.99795111e-09
booster[782]:
0:leaf=6.99795111e-09
booster[783]:
0:leaf=6.99795111e-09
booster[784]:
0:leaf=6.99795111e-09
booster[785]:
0:leaf=6.99795111e-09
booster[786]:
0:leaf=6.99795111e-09
booster[787]:
0:leaf=6.99795111e-09
booster[788]:
0:leaf=6.99795111e-09
booster[789]:
0:leaf=6.99795111e-09
booster[790]:
0:leaf=6.99795111e-09
booster[791]:
0:leaf=6.99795111e-09
booster[792]:
0:leaf=6.99795111e-09
booster[793]:
0:leaf=6.99795111e-09
booster[794]:
0:leaf=6.99795111e-09
booster[795]:
0:leaf=6.99795111e-09
booster[796]:
0:leaf=6.99795111e-09
booster[797]:
0:leaf=6.99795111e-09
booster[798]:
0:leaf=6.99795111e-09
booster[799]:
0:leaf=6.99795111e-09
booster[800]:
0:leaf=6.99795111e-09
booster[801]:
0:leaf=6.99795111e-09
booster[802]:
0:leaf=6.99795111e-09
booster[803]:
0:leaf=6.99795111e-09
booster[804]:
0:leaf=6.99795111e-09
booster[805]:
0:leaf=6.99795111e-09
booster[806]:
0:leaf=6.99795111e-09
booster[807]:
0:leaf=6.99795111e-09
booster[808]:
0:leaf=6.99795111e-09
booster[809]:
0:leaf=6.99795111e-09
booster[810]:
0:leaf=6.99795111e-09
booster[811]:
0:leaf=6.99795111e-09
booster[812]:
0:leaf=6.99795111e-09
booster[813]:
0:leaf=6.99795111e-09
booster[814]:
0:leaf=6.99795111e-09
booster[815]:
0:leaf=6.99795111e-09
booster[816]:
0:leaf=6.99795111e-09
booster[817]:
0:leaf=6.99795111e-09
booster[818]:
0:leaf=6.99795111e-09
booster[819]:
0:leaf=6.99795111e-09
booster[820]:
0:leaf=6.99795111e-09
booster[821]:
0:leaf=6.99795111e-09
booster[822]:
0:leaf=6.99795111e-09
booster[823]:
0:leaf=6.99795111e-09
booster[824]:
0:leaf=6.99795111e-09
booster[825]:
0:leaf=6.99795111e-09
booster[826]:
0:leaf=6.99795111e-09
booster[827]:
0:leaf=6.99795111e-09
booster[828]:
0:leaf=6.99795111e-09
booster[829]:
0:leaf=6.99795111e-09
booster[830]:
0:leaf=6.99795111e-09
booster[831]:
0:leaf=6.99795111e-09
booster[832]:
0:leaf=6.99795111e-09
booster[833]:
0:leaf=6.99795111e-09
booster[834]:
0:leaf=6.99795111e-09
booster[835]:
0:leaf=6.99795111e-09
booster[836]:
0:leaf=6.99795111e-09
booster[837]:
0:leaf=6.99795111e-09
booster[838]:
0:leaf=6.99795111e-09
booster[839]:
0:leaf=6.99795111e-09
booster[840]:
0:leaf=6.99795111e-09
booster[841]:
0:leaf=6.99795111e-09
booster[842]:
0:leaf=6.99795111e-09
booster[843]:
0:leaf=6.99795111e-09
booster[844]:
0:leaf=6.99795111e-09
booster[845]:
0:leaf=6.99795111e-09
booster[846]:
0:leaf=6.99795111e-09
booster[847]:
0:leaf=6.99795111e-09
booster[848]:
0:leaf=6.99795111e-09
booster[849]:
0:leaf=6.99795111e-09
booster[850]:
0:leaf=6.99795111e-09
booster[851]:
0:leaf=6.99795111e-09
booster[852]:
0:leaf=6.99795111e-09
booster[853]:
0:leaf=6.99795111e-09
booster[854]:
0:leaf=6.99795111e-09
booster[855]:
0:leaf=6.99795111e-09
booster[856]:
0:leaf=6.99795111e-09
booster[857]:
0:leaf=6.99795111e-09
booster[858]:
0:leaf=6.99795111e-09
booster[859]:
0:leaf=6.99795111e-09
booster[860]:
0:leaf=6.99795111e-09
booster[861]:
0:leaf=6.99795111e-09
booster[862]:
0:leaf=6.99795111e-09
booster[863]:
0:leaf=6.99795111e-09
booster[864]:
0:leaf=6.99795111e-09
booster[865]:
0:leaf=6.99795111e-09
booster[866]:
0:leaf=6.99795111e-09
booster[867]:
0:leaf=6.99795111e-09
booster[868]:
0:leaf=6.99795111e-09
booster[869]:
0:leaf=6.99795111e-09
booster[870]:
0:leaf=6.99795111e-09
booster[871]:
0:leaf=6.99795111e-09
booster[872]:
0:leaf=6.99795111e-09
booster[873]:
0:leaf=6.99795111e-09
booster[874]:
0:leaf=6.99795111e-09
booster[875]:
0:leaf=6.99795111e-09
booster[876]:
0:leaf=6.99795111e-09
booster[877]:
0:leaf=6.99795111e-09
booster[878]:
0:leaf=6.99795111e-09
booster[879]:
0:leaf=6.99795111e-09
booster[880]:
0:leaf=6.99795111e-09
booster[881]:
0:leaf=6.99795111e-09
booster[882]:
0:leaf=6.99795111e-09
booster[883]:
0:leaf=6.99795111e-09
booster[884]:
0:leaf=6.99795111e-09
booster[885]:
0:leaf=6.99795111e-09
booster[886]:
0:leaf=6.99795111e-09
booster[887]:
0:leaf=6.99795111e-09
booster[888]:
0:leaf=6.99795111e-09
booster[889]:
0:leaf=6.99795111e-09
booster[890]:
0:leaf=6.99795111e-09
booster[891]:
0:leaf=6.99795111e-09
booster[892]:
0:leaf=6.99795111e-09
booster[893]:
0:leaf=6.99795111e-09
booster[894]:
0:leaf=6.99795111e-09
booster[895]:
0:leaf=6.99795111e-09
booster[896]:
0:leaf=6.99795111e-09
booster[897]:
0:leaf=6.99795111e-09
booster[898]:
0:leaf=6.99795111e-09
booster[899]:
0:leaf=6.99795111e-09
booster[900]:
0:leaf=6.99795111e-09
booster[901]:
0:leaf=6.99795111e-09
booster[902]:
0:leaf=6.99795111e-09
booster[903]:
0:leaf=6.99795111e-09
booster[904]:
0:leaf=6.99795111e-09
booster[905]:
0:leaf=6.99795111e-09
booster[906]:
0:leaf=6.99795111e-09
booster[907]:
0:leaf=6.99795111e-09
booster[908]:
0:leaf=6.99795111e-09
booster[909]:
0:leaf=6.99795111e-09
booster[910]:
0:leaf=6.99795111e-09
booster[911]:
0:leaf=6.99795111e-09
booster[912]:
0:leaf=6.99795111e-09
booster[913]:
0:leaf=6.99795111e-09
booster[914]:
0:leaf=6.99795111e-09
booster[915]:
0:leaf=6.99795111e-09
booster[916]:
0:leaf=6.99795111e-09
booster[917]:
0:leaf=6.99795111e-09
booster[918]:
0:leaf=6.99795111e-09
booster[919]:
0:leaf=6.99795111e-09
booster[920]:
0:leaf=6.99795111e-09
booster[921]:
0:leaf=6.99795111e-09
booster[922]:
0:leaf=6.99795111e-09
booster[923]:
0:leaf=6.99795111e-09
booster[924]:
0:leaf=6.99795111e-09
booster[925]:
0:leaf=6.99795111e-09
booster[926]:
0:leaf=6.99795111e-09
booster[927]:
0:leaf=6.99795111e-09
booster[928]:
0:leaf=6.99795111e-09
booster[929]:
0:leaf=6.99795111e-09
booster[930]:
0:leaf=6.99795111e-09
booster[931]:
0:leaf=6.99795111e-09
booster[932]:
0:leaf=6.99795111e-09
booster[933]:
0:leaf=6.99795111e-09
booster[934]:
0:leaf=6.99795111e-09
booster[935]:
0:leaf=6.99795111e-09
booster[936]:
0:leaf=6.99795111e-09
booster[937]:
0:leaf=6.99795111e-09
booster[938]:
0:leaf=6.99795111e-09
booster[939]:
0:leaf=6.99795111e-09
booster[940]:
0:leaf=6.99795111e-09
booster[941]:
0:leaf=6.99795111e-09
booster[942]:
0:leaf=6.99795111e-09
booster[943]:
0:leaf=6.99795111e-09
booster[944]:
0:leaf=6.99795111e-09
booster[945]:
0:leaf=6.99795111e-09
booster[946]:
0:leaf=6.99795111e-09
booster[947]:
0:leaf=6.99795111e-09
booster[948]:
0:leaf=6.99795111e-09
booster[949]:
0:leaf=6.99795111e-09
booster[950]:
0:leaf=6.99795111e-09
booster[951]:
0:leaf=6.99795111e-09
booster[952]:
0:leaf=6.99795111e-09
booster[953]:
0:leaf=6.99795111e-09
booster[954]:
0:leaf=6.99795111e-09
booster[955]:
0:leaf=6.99795111e-09
booster[956]:
0:leaf=6.99795111e-09
booster[957]:
0:leaf=6.99795111e-09
booster[958]:
0:leaf=6.99795111e-09
booster[959]:
0:leaf=6.99795111e-09
booster[960]:
0:leaf=6.99795111e-09
booster[961]:
0:leaf=6.99795111e-09
booster[962]:
0:leaf=6.99795111e-09
booster[963]:
0:leaf=6.99795111e-09
booster[964]:
0:leaf=6.99795111e-09
booster[965]:
0:leaf=6.99795111e-09
booster[966]:
0:leaf=6.99795111e-09
booster[967]:
0:leaf=6.99795111e-09
booster[968]:
0:leaf=6.99795111e-09
booster[969]:
0:leaf=6.99795111e-09
booster[970]:
0:leaf=6.99795111e-09
booster[971]:
0:leaf=6.99795111e-09
booster[972]:
0:leaf=6.99795111e-09
booster[973]:
0:leaf=6.99795111e-09
booster[974]:
0:leaf=6.99795111e-09
booster[975]:
0:leaf=6.99795111e-09
booster[976]:
0:leaf=6.99795111e-09
booster[977]:
0:leaf=6.99795111e-09
booster[978]:
0:leaf=6.99795111e-09
booster[979]:
0:leaf=6.99795111e-09
booster[980]:
0:leaf=6.99795111e-09
booster[981]:
0:leaf=6.99795111e-09
booster[982]:
0:leaf=6.99795111e-09
booster[983]:
0:leaf=6.99795111e-09
booster[984]:
0:leaf=6.99795111e-09
booster[985]:
0:leaf=6.99795111e-09
booster[986]:
0:leaf=6.99795111e-09
booster[987]:
0:leaf=6.99795111e-09
booster[988]:
0:leaf=6.99795111e-09
booster[989]:
0:leaf=6.99795111e-09
booster[990]:
0:leaf=6.99795111e-09
booster[991]:
0:leaf=6.99795111e-09
booster[992]:
0:leaf=6.99795111e-09
booster[993]:
0:leaf=6.99795111e-09
booster[994]:
0:leaf=6.99795111e-09
booster[995]:
0:leaf=6.99795111e-09
booster[996]:
0:leaf=6.99795111e-09
booster[997]:
0:leaf=6.99795111e-09
booster[998]:
0:leaf=6.99795111e-09
booster[999]:
0:leaf=6.99795111e-09
booster[1000]:
0:leaf=6.99795111e-09
booster[1001]:
0:leaf=6.99795111e-09
booster[1002]:
0:leaf=6.99795111e-09
booster[1003]:
0:leaf=6.99795111e-09
booster[1004]:
0:leaf=6.99795111e-09
booster[1005]:
0:leaf=6.99795111e-09
booster[1006]:
0:leaf=6.99795111e-09
booster[1007]:
0:leaf=6.99795111e-09
booster[1008]:
0:leaf=6.99795111e-09
booster[1009]:
0:leaf=6.99795111e-09
booster[1010]:
0:leaf=6.99795111e-09
booster[1011]:
0:leaf=6.99795111e-09
booster[1012]:
0:leaf=6.99795111e-09
booster[1013]:
0:leaf=6.99795111e-09
booster[1014]:
0:leaf=6.99795111e-09
booster[1015]:
0:leaf=6.99795111e-09
booster[1016]:
0:leaf=6.99795111e-09
booster[1017]:
0:leaf=6.99795111e-09
booster[1018]:
0:leaf=6.99795111e-09
booster[1019]:
0:leaf=6.99795111e-09
booster[1020]:
0:leaf=6.99795111e-09
booster[1021]:
0:leaf=6.99795111e-09
booster[1022]:
0:leaf=6.99795111e-09
booster[1023]:
0:leaf=6.99795111e-09
booster[1024]:
0:leaf=6.99795111e-09
booster[1025]:
0:leaf=6.99795111e-09
booster[1026]:
0:leaf=6.99795111e-09
booster[1027]:
0:leaf=6.99795111e-09
booster[1028]:
0:leaf=6.99795111e-09
booster[1029]:
0:leaf=6.99795111e-09
booster[1030]:
0:leaf=6.99795111e-09
booster[1031]:
0:leaf=6.99795111e-09
booster[1032]:
0:leaf=6.99795111e-09
booster[1033]:
0:leaf=6.99795111e-09
booster[1034]:
0:leaf=6.99795111e-09
booster[1035]:
0:leaf=6.99795111e-09
booster[1036]:
0:leaf=6.99795111e-09
booster[1037]:
0:leaf=6.99795111e-09
booster[1038]:
0:leaf=6.99795111e-09
booster[1039]:
0:leaf=6.99795111e-09
booster[1040]:
0:leaf=6.99795111e-09
booster[1041]:
0:leaf=6.99795111e-09
booster[1042]:
0:leaf=6.99795111e-09
booster[1043]:
0:leaf=6.99795111e-09
booster[1044]:
0:leaf=6.99795111e-09
booster[1045]:
0:leaf=6.99795111e-09
booster[1046]:
0:leaf=6.99795111e-09
booster[1047]:
0:leaf=6.99795111e-09
booster[1048]:
0:leaf=6.99795111e-09
booster[1049]:
0:leaf=6.99795111e-09
booster[1050]:
0:leaf=6.99795111e-09
booster[1051]:
0:leaf=6.99795111e-09
booster[1052]:
0:leaf=6.99795111e-09
booster[1053]:
0:leaf=6.99795111e-09
booster[1054]:
0:leaf=6.99795111e-09
booster[1055]:
0:leaf=6.99795111e-09
booster[1056]:
0:leaf=6.99795111e-09
booster[1057]:
0:leaf=6.99795111e-09
booster[1058]:
0:leaf=6.99795111e-09
booster[1059]:
0:leaf=6.99795111e-09
booster[1060]:
0:leaf=6.99795111e-09
booster[1061]:
0:leaf=6.99795111e-09
booster[1062]:
0:leaf=6.99795111e-09
booster[1063]:
0:leaf=6.99795111e-09
booster[1064]:
0:leaf=6.99795111e-09
booster[1065]:
0:leaf=6.99795111e-09
booster[1066]:
0:leaf=6.99795111e-09
booster[1067]:
0:leaf=6.99795111e-09
booster[1068]:
0:leaf=6.99795111e-09
booster[1069]:
0:leaf=6.99795111e-09
booster[1070]:
0:leaf=6.99795111e-09
booster[1071]:
0:leaf=6.99795111e-09
booster[1072]:
0:leaf=6.99795111e-09
booster[1073]:
0:leaf=6.99795111e-09
booster[1074]:
0:leaf=6.99795111e-09
booster[1075]:
0:leaf=6.99795111e-09
booster[1076]:
0:leaf=6.99795111e-09
booster[1077]:
0:leaf=6.99795111e-09
booster[1078]:
0:leaf=6.99795111e-09
booster[1079]:
0:leaf=6.99795111e-09
booster[1080]:
0:leaf=6.99795111e-09
booster[1081]:
0:leaf=6.99795111e-09
booster[1082]:
0:leaf=6.99795111e-09
booster[1083]:
0:leaf=6.99795111e-09
booster[1084]:
0:leaf=6.99795111e-09
booster[1085]:
0:leaf=6.99795111e-09
booster[1086]:
0:leaf=6.99795111e-09
booster[1087]:
0:leaf=6.99795111e-09
booster[1088]:
0:leaf=6.99795111e-09
booster[1089]:
0:leaf=6.99795111e-09
booster[1090]:
0:leaf=6.99795111e-09
booster[1091]:
0:leaf=6.99795111e-09
booster[1092]:
0:leaf=6.99795111e-09
booster[1093]:
0:leaf=6.99795111e-09
booster[1094]:
0:leaf=6.99795111e-09
booster[1095]:
0:leaf=6.99795111e-09
booster[1096]:
0:leaf=6.99795111e-09
booster[1097]:
0:leaf=6.99795111e-09
booster[1098]:
0:leaf=6.99795111e-09
booster[1099]:
0:leaf=6.99795111e-09
booster[1100]:
0:leaf=6.99795111e-09
booster[1101]:
0:leaf=6.99795111e-09
booster[1102]:
0:leaf=6.99795111e-09
booster[1103]:
0:leaf=6.99795111e-09
booster[1104]:
0:leaf=6.99795111e-09
booster[1105]:
0:leaf=6.99795111e-09
booster[1106]:
0:leaf=6.99795111e-09
booster[1107]:
0:leaf=6.99795111e-09
booster[1108]:
0:leaf=6.99795111e-09
booster[1109]:
0:leaf=6.99795111e-09
booster[1110]:
0:leaf=6.99795111e-09
booster[1111]:
0:leaf=6.99795111e-09
booster[1112]:
0:leaf=6.99795111e-09
booster[1113]:
0:leaf=6.99795111e-09
booster[1114]:
0:leaf=6.99795111e-09
booster[1115]:
0:leaf=6.99795111e-09
booster[1116]:
0:leaf=6.99795111e-09
booster[1117]:
0:leaf=6.99795111e-09
booster[1118]:
0:leaf=6.99795111e-09
booster[1119]:
0:leaf=6.99795111e-09
booster[1120]:
0:leaf=6.99795111e-09
booster[1121]:
0:leaf=6.99795111e-09
booster[1122]:
0:leaf=6.99795111e-09
booster[1123]:
0:leaf=6.99795111e-09
booster[1124]:
0:leaf=6.99795111e-09
booster[1125]:
0:leaf=6.99795111e-09
booster[1126]:
0:leaf=6.99795111e-09
booster[1127]:
0:leaf=6.99795111e-09
booster[1128]:
0:leaf=6.99795111e-09
booster[1129]:
0:leaf=6.99795111e-09
booster[1130]:
0:leaf=6.99795111e-09
booster[1131]:
0:leaf=6.99795111e-09
booster[1132]:
0:leaf=6.99795111e-09
booster[1133]:
0:leaf=6.99795111e-09
booster[1134]:
0:leaf=6.99795111e-09
booster[1135]:
0:leaf=6.99795111e-09
booster[1136]:
0:leaf=6.99795111e-09
booster[1137]:
0:leaf=6.99795111e-09
booster[1138]:
0:leaf=6.99795111e-09
booster[1139]:
0:leaf=6.99795111e-09
booster[1140]:
0:leaf=6.99795111e-09
booster[1141]:
0:leaf=6.99795111e-09
booster[1142]:
0:leaf=6.99795111e-09
booster[1143]:
0:leaf=6.99795111e-09
booster[1144]:
0:leaf=6.99795111e-09
booster[1145]:
0:leaf=6.99795111e-09
booster[1146]:
0:leaf=6.99795111e-09
booster[1147]:
0:leaf=6.99795111e-09
booster[1148]:
0:leaf=6.99795111e-09
booster[1149]:
0:leaf=6.99795111e-09
booster[1150]:
0:leaf=6.99795111e-09
booster[1151]:
0:leaf=6.99795111e-09
booster[1152]:
0:leaf=6.99795111e-09
booster[1153]:
0:leaf=6.99795111e-09
booster[1154]:
0:leaf=6.99795111e-09
booster[1155]:
0:leaf=6.99795111e-09
booster[1156]:
0:leaf=6.99795111e-09
booster[1157]:
0:leaf=6.99795111e-09
booster[1158]:
0:leaf=6.99795111e-09
booster[1159]:
0:leaf=6.99795111e-09
booster[1160]:
0:leaf=6.99795111e-09
booster[1161]:
0:leaf=6.99795111e-09
booster[1162]:
0:leaf=6.99795111e-09
booster[1163]:
0:leaf=6.99795111e-09
booster[1164]:
0:leaf=6.99795111e-09
booster[1165]:
0:leaf=6.99795111e-09
booster[1166]:
0:leaf=6.99795111e-09
booster[1167]:
0:leaf=6.99795111e-09
booster[1168]:
0:leaf=6.99795111e-09
booster[1169]:
0:leaf=6.99795111e-09
booster[1170]:
0:leaf=6.99795111e-09
booster[1171]:
0:leaf=6.99795111e-09
booster[1172]:
0:leaf=6.99795111e-09
booster[1173]:
0:leaf=6.99795111e-09
booster[1174]:
0:leaf=6.99795111e-09
booster[1175]:
0:leaf=6.99795111e-09
booster[1176]:
0:leaf=6.99795111e-09
booster[1177]:
0:leaf=6.99795111e-09
booster[1178]:
0:leaf=6.99795111e-09
booster[1179]:
0:leaf=6.99795111e-09
booster[1180]:
0:leaf=6.99795111e-09
booster[1181]:
0:leaf=6.99795111e-09
booster[1182]:
0:leaf=6.99795111e-09
booster[1183]:
0:leaf=6.99795111e-09
booster[1184]:
0:leaf=6.99795111e-09
booster[1185]:
0:leaf=6.99795111e-09
booster[1186]:
0:leaf=6.99795111e-09
booster[1187]:
0:leaf=6.99795111e-09
booster[1188]:
0:leaf=6.99795111e-09
booster[1189]:
0:leaf=6.99795111e-09
booster[1190]:
0:leaf=6.99795111e-09
booster[1191]:
0:leaf=6.99795111e-09
booster[1192]:
0:leaf=6.99795111e-09
booster[1193]:
0:leaf=6.99795111e-09
booster[1194]:
0:leaf=6.99795111e-09
booster[1195]:
0:leaf=6.99795111e-09
booster[1196]:
0:leaf=6.99795111e-09
booster[1197]:
0:leaf=6.99795111e-09
booster[1198]:
0:leaf=6.99795111e-09
booster[1199]:
0:leaf=6.99795111e-09
booster[1200]:
0:leaf=6.99795111e-09
booster[1201]:
0:leaf=6.99795111e-09
booster[1202]:
0:leaf=6.99795111e-09
booster[1203]:
0:leaf=6.99795111e-09
booster[1204]:
0:leaf=6.99795111e-09
booster[1205]:
0:leaf=6.99795111e-09
booster[1206]:
0:leaf=6.99795111e-09
booster[1207]:
0:leaf=6.99795111e-09
booster[1208]:
0:leaf=6.99795111e-09
booster[1209]:
0:leaf=6.99795111e-09
booster[1210]:
0:leaf=6.99795111e-09
booster[1211]:
0:leaf=6.99795111e-09
booster[1212]:
0:leaf=6.99795111e-09
booster[1213]:
0:leaf=6.99795111e-09
booster[1214]:
0:leaf=6.99795111e-09
booster[1215]:
0:leaf=6.99795111e-09
booster[1216]:
0:leaf=6.99795111e-09
booster[1217]:
0:leaf=6.99795111e-09
booster[1218]:
0:leaf=6.99795111e-09
booster[1219]:
0:leaf=6.99795111e-09
booster[1220]:
0:leaf=6.99795111e-09
booster[1221]:
0:leaf=6.99795111e-09
booster[1222]:
0:leaf=6.99795111e-09
booster[1223]:
0:leaf=6.99795111e-09
booster[1224]:
0:leaf=6.99795111e-09
booster[1225]:
0:leaf=6.99795111e-09
booster[1226]:
0:leaf=6.99795111e-09
booster[1227]:
0:leaf=6.99795111e-09
booster[1228]:
0:leaf=6.99795111e-09
booster[1229]:
0:leaf=6.99795111e-09
booster[1230]:
0:leaf=6.99795111e-09
booster[1231]:
0:leaf=6.99795111e-09
booster[1232]:
0:leaf=6.99795111e-09
booster[1233]:
0:leaf=6.99795111e-09
booster[1234]:
0:leaf=6.99795111e-09
booster[1235]:
0:leaf=6.99795111e-09
booster[1236]:
0:leaf=6.99795111e-09
booster[1237]:
0:leaf=6.99795111e-09
booster[1238]:
0:leaf=6.99795111e-09
booster[1239]:
0:leaf=6.99795111e-09
booster[1240]:
0:leaf=6.99795111e-09
booster[1241]:
0:leaf=6.99795111e-09
booster[1242]:
0:leaf=6.99795111e-09
booster[1243]:
0:leaf=6.99795111e-09
booster[1244]:
0:leaf=6.99795111e-09
booster[1245]:
0:leaf=6.99795111e-09
booster[1246]:
0:leaf=6.99795111e-09
booster[1247]:
0:leaf=6.99795111e-09
booster[1248]:
0:leaf=6.99795111e-09
booster[1249]:
0:leaf=6.99795111e-09
booster[1250]:
0:leaf=6.99795111e-09
booster[1251]:
0:leaf=6.99795111e-09
booster[1252]:
0:leaf=6.99795111e-09
booster[1253]:
0:leaf=6.99795111e-09
booster[1254]:
0:leaf=6.99795111e-09
booster[1255]:
0:leaf=6.99795111e-09
booster[1256]:
0:leaf=6.99795111e-09
booster[1257]:
0:leaf=6.99795111e-09
booster[1258]:
0:leaf=6.99795111e-09
booster[1259]:
0:leaf=6.99795111e-09
booster[1260]:
0:leaf=6.99795111e-09
booster[1261]:
0:leaf=6.99795111e-09
booster[1262]:
0:leaf=6.99795111e-09
booster[1263]:
0:leaf=6.99795111e-09
booster[1264]:
0:leaf=6.99795111e-09
booster[1265]:
0:leaf=6.99795111e-09
booster[1266]:
0:leaf=6.99795111e-09
booster[1267]:
0:leaf=6.99795111e-09
booster[1268]:
0:leaf=6.99795111e-09
booster[1269]:
0:leaf=6.99795111e-09
booster[1270]:
0:leaf=6.99795111e-09
booster[1271]:
0:leaf=6.99795111e-09
booster[1272]:
0:leaf=6.99795111e-09
booster[1273]:
0:leaf=6.99795111e-09
booster[1274]:
0:leaf=6.99795111e-09
booster[1275]:
0:leaf=6.99795111e-09
booster[1276]:
0:leaf=6.99795111e-09
booster[1277]:
0:leaf=6.99795111e-09
booster[1278]:
0:leaf=6.99795111e-09
booster[1279]:
0:leaf=6.99795111e-09
booster[1280]:
0:leaf=6.99795111e-09
booster[1281]:
0:leaf=6.99795111e-09
booster[1282]:
0:leaf=6.99795111e-09
booster[1283]:
0:leaf=6.99795111e-09
booster[1284]:
0:leaf=6.99795111e-09
booster[1285]:
0:leaf=6.99795111e-09
booster[1286]:
0:leaf=6.99795111e-09
booster[1287]:
0:leaf=6.99795111e-09
booster[1288]:
0:leaf=6.99795111e-09
booster[1289]:
0:leaf=6.99795111e-09
booster[1290]:
0:leaf=6.99795111e-09
booster[1291]:
0:leaf=6.99795111e-09
booster[1292]:
0:leaf=6.99795111e-09
booster[1293]:
0:leaf=6.99795111e-09
booster[1294]:
0:leaf=6.99795111e-09
booster[1295]:
0:leaf=6.99795111e-09
booster[1296]:
0:leaf=6.99795111e-09
booster[1297]:
0:leaf=6.99795111e-09
booster[1298]:
0:leaf=6.99795111e-09
booster[1299]:
0:leaf=6.99795111e-09
booster[1300]:
0:leaf=6.99795111e-09
booster[1301]:
0:leaf=6.99795111e-09
booster[1302]:
0:leaf=6.99795111e-09
booster[1303]:
0:leaf=6.99795111e-09
booster[1304]:
0:leaf=6.99795111e-09
booster[1305]:
0:leaf=6.99795111e-09
booster[1306]:
0:leaf=6.99795111e-09
booster[1307]:
0:leaf=6.99795111e-09
booster[1308]:
0:leaf=6.99795111e-09
booster[1309]:
0:leaf=6.99795111e-09
booster[1310]:
0:leaf=6.99795111e-09
booster[1311]:
0:leaf=6.99795111e-09
booster[1312]:
0:leaf=6.99795111e-09
booster[1313]:
0:leaf=6.99795111e-09
booster[1314]:
0:leaf=6.99795111e-09
booster[1315]:
0:leaf=6.99795111e-09
booster[1316]:
0:leaf=6.99795111e-09
booster[1317]:
0:leaf=6.99795111e-09
booster[1318]:
0:leaf=6.99795111e-09
booster[1319]:
0:leaf=6.99795111e-09
booster[1320]:
0:leaf=6.99795111e-09
booster[1321]:
0:leaf=6.99795111e-09
booster[1322]:
0:leaf=6.99795111e-09
booster[1323]:
0:leaf=6.99795111e-09
booster[1324]:
0:leaf=6.99795111e-09
booster[1325]:
0:leaf=6.99795111e-09
booster[1326]:
0:leaf=6.99795111e-09
booster[1327]:
0:leaf=6.99795111e-09
booster[1328]:
0:leaf=6.99795111e-09
booster[1329]:
0:leaf=6.99795111e-09
booster[1330]:
0:leaf=6.99795111e-09
booster[1331]:
0:leaf=6.99795111e-09
booster[1332]:
0:leaf=6.99795111e-09
booster[1333]:
0:leaf=6.99795111e-09
booster[1334]:
0:leaf=6.99795111e-09
booster[1335]:
0:leaf=6.99795111e-09
booster[1336]:
0:leaf=6.99795111e-09
booster[1337]:
0:leaf=6.99795111e-09
booster[1338]:
0:leaf=6.99795111e-09
booster[1339]:
0:leaf=6.99795111e-09
booster[1340]:
0:leaf=6.99795111e-09
booster[1341]:
0:leaf=6.99795111e-09
booster[1342]:
0:leaf=6.99795111e-09
booster[1343]:
0:leaf=6.99795111e-09
booster[1344]:
0:leaf=6.99795111e-09
booster[1345]:
0:leaf=6.99795111e-09
booster[1346]:
0:leaf=6.99795111e-09
booster[1347]:
0:leaf=6.99795111e-09
booster[1348]:
0:leaf=6.99795111e-09
booster[1349]:
0:leaf=6.99795111e-09
booster[1350]:
0:leaf=6.99795111e-09
booster[1351]:
0:leaf=6.99795111e-09
booster[1352]:
0:leaf=6.99795111e-09
booster[1353]:
0:leaf=6.99795111e-09
booster[1354]:
0:leaf=6.99795111e-09
booster[1355]:
0:leaf=6.99795111e-09
booster[1356]:
0:leaf=6.99795111e-09
booster[1357]:
0:leaf=6.99795111e-09
booster[1358]:
0:leaf=6.99795111e-09
booster[1359]:
0:leaf=6.99795111e-09
booster[1360]:
0:leaf=6.99795111e-09
booster[1361]:
0:leaf=6.99795111e-09
booster[1362]:
0:leaf=6.99795111e-09
booster[1363]:
0:leaf=6.99795111e-09
booster[1364]:
0:leaf=6.99795111e-09
booster[1365]:
0:leaf=6.99795111e-09
booster[1366]:
0:leaf=6.99795111e-09
booster[1367]:
0:leaf=6.99795111e-09
booster[1368]:
0:leaf=6.99795111e-09
booster[1369]:
0:leaf=6.99795111e-09
booster[1370]:
0:leaf=6.99795111e-09
booster[1371]:
0:leaf=6.99795111e-09
booster[1372]:
0:leaf=6.99795111e-09
booster[1373]:
0:leaf=6.99795111e-09
booster[1374]:
0:leaf=6.99795111e-09
booster[1375]:
0:leaf=6.99795111e-09
booster[1376]:
0:leaf=6.99795111e-09
booster[1377]:
0:leaf=6.99795111e-09
booster[1378]:
0:leaf=6.99795111e-09
booster[1379]:
0:leaf=6.99795111e-09
booster[1380]:
0:leaf=6.99795111e-09
booster[1381]:
0:leaf=6.99795111e-09
booster[1382]:
0:leaf=6.99795111e-09
booster[1383]:
0:leaf=6.99795111e-09
booster[1384]:
0:leaf=6.99795111e-09
booster[1385]:
0:leaf=6.99795111e-09
booster[1386]:
0:leaf=6.99795111e-09
booster[1387]:
0:leaf=6.99795111e-09
booster[1388]:
0:leaf=6.99795111e-09
booster[1389]:
0:leaf=6.99795111e-09
booster[1390]:
0:leaf=6.99795111e-09
booster[1391]:
0:leaf=6.99795111e-09
booster[1392]:
0:leaf=6.99795111e-09
booster[1393]:
0:leaf=6.99795111e-09
booster[1394]:
0:leaf=6.99795111e-09
booster[1395]:
0:leaf=6.99795111e-09
booster[1396]:
0:leaf=6.99795111e-09
booster[1397]:
0:leaf=6.99795111e-09
booster[1398]:
0:leaf=6.99795111e-09
booster[1399]:
0:leaf=6.99795111e-09
booster[1400]:
0:leaf=6.99795111e-09
booster[1401]:
0:leaf=6.99795111e-09
booster[1402]:
0:leaf=6.99795111e-09
booster[1403]:
0:leaf=6.99795111e-09
booster[1404]:
0:leaf=6.99795111e-09
booster[1405]:
0:leaf=6.99795111e-09
booster[1406]:
0:leaf=6.99795111e-09
booster[1407]:
0:leaf=6.99795111e-09
booster[1408]:
0:leaf=6.99795111e-09
booster[1409]:
0:leaf=6.99795111e-09
booster[1410]:
0:leaf=6.99795111e-09
booster[1411]:
0:leaf=6.99795111e-09
booster[1412]:
0:leaf=6.99795111e-09
booster[1413]:
0:leaf=6.99795111e-09
booster[1414]:
0:leaf=6.99795111e-09
booster[1415]:
0:leaf=6.99795111e-09
booster[1416]:
0:leaf=6.99795111e-09
booster[1417]:
0:leaf=6.99795111e-09
booster[1418]:
0:leaf=6.99795111e-09
booster[1419]:
0:leaf=6.99795111e-09
booster[1420]:
0:leaf=6.99795111e-09
booster[1421]:
0:leaf=6.99795111e-09
booster[1422]:
0:leaf=6.99795111e-09
booster[1423]:
0:leaf=6.99795111e-09
booster[1424]:
0:leaf=6.99795111e-09
booster[1425]:
0:leaf=6.99795111e-09
booster[1426]:
0:leaf=6.99795111e-09
booster[1427]:
0:leaf=6.99795111e-09
booster[1428]:
0:leaf=6.99795111e-09
booster[1429]:
0:leaf=6.99795111e-09
booster[1430]:
0:leaf=6.99795111e-09
booster[1431]:
0:leaf=6.99795111e-09
booster[1432]:
0:leaf=6.99795111e-09
booster[1433]:
0:leaf=6.99795111e-09
booster[1434]:
0:leaf=6.99795111e-09
booster[1435]:
0:leaf=6.99795111e-09
booster[1436]:
0:leaf=6.99795111e-09
booster[1437]:
0:leaf=6.99795111e-09
booster[1438]:
0:leaf=6.99795111e-09
booster[1439]:
0:leaf=6.99795111e-09
booster[1440]:
0:leaf=6.99795111e-09
booster[1441]:
0:leaf=6.99795111e-09
booster[1442]:
0:leaf=6.99795111e-09
booster[1443]:
0:leaf=6.99795111e-09
booster[1444]:
0:leaf=6.99795111e-09
booster[1445]:
0:leaf=6.99795111e-09
booster[1446]:
0:leaf=6.99795111e-09
booster[1447]:
0:leaf=6.99795111e-09
booster[1448]:
0:leaf=6.99795111e-09
booster[1449]:
0:leaf=6.99795111e-09
booster[1450]:
0:leaf=6.99795111e-09
booster[1451]:
0:leaf=6.99795111e-09
booster[1452]:
0:leaf=6.99795111e-09
booster[1453]:
0:leaf=6.99795111e-09
booster[1454]:
0:leaf=6.99795111e-09
booster[1455]:
0:leaf=6.99795111e-09
booster[1456]:
0:leaf=6.99795111e-09
booster[1457]:
0:leaf=6.99795111e-09
booster[1458]:
0:leaf=6.99795111e-09
booster[1459]:
0:leaf=6.99795111e-09
booster[1460]:
0:leaf=6.99795111e-09
booster[1461]:
0:leaf=6.99795111e-09
booster[1462]:
0:leaf=6.99795111e-09
booster[1463]:
0:leaf=6.99795111e-09
booster[1464]:
0:leaf=6.99795111e-09
booster[1465]:
0:leaf=6.99795111e-09
booster[1466]:
0:leaf=6.99795111e-09
booster[1467]:
0:leaf=6.99795111e-09
booster[1468]:
0:leaf=6.99795111e-09
booster[1469]:
0:leaf=6.99795111e-09
booster[1470]:
0:leaf=6.99795111e-09
booster[1471]:
0:leaf=6.99795111e-09
booster[1472]:
0:leaf=6.99795111e-09
booster[1473]:
0:leaf=6.99795111e-09
booster[1474]:
0:leaf=6.99795111e-09
booster[1475]:
0:leaf=6.99795111e-09
booster[1476]:
0:leaf=6.99795111e-09
booster[1477]:
0:leaf=6.99795111e-09
booster[1478]:
0:leaf=6.99795111e-09
booster[1479]:
0:leaf=6.99795111e-09
booster[1480]:
0:leaf=6.99795111e-09
booster[1481]:
0:leaf=6.99795111e-09
booster[1482]:
0:leaf=6.99795111e-09
booster[1483]:
0:leaf=6.99795111e-09
booster[1484]:
0:leaf=6.99795111e-09
booster[1485]:
0:leaf=6.99795111e-09
booster[1486]:
0:leaf=6.99795111e-09
booster[1487]:
0:leaf=6.99795111e-09
booster[1488]:
0:leaf=6.99795111e-09
booster[1489]:
0:leaf=6.99795111e-09
booster[1490]:
0:leaf=6.99795111e-09
booster[1491]:
0:leaf=6.99795111e-09
booster[1492]:
0:leaf=6.99795111e-09
booster[1493]:
0:leaf=6.99795111e-09
booster[1494]:
0:leaf=6.99795111e-09
booster[1495]:
0:leaf=6.99795111e-09
booster[1496]:
0:leaf=6.99795111e-09
booster[1497]:
0:leaf=6.99795111e-09
booster[1498]:
0:leaf=6.99795111e-09
booster[1499]:
0:leaf=6.99795111e-09
booster[1500]:
0:leaf=6.99795111e-09
booster[1501]:
0:leaf=6.99795111e-09
booster[1502]:
0:leaf=6.99795111e-09
booster[1503]:
0:leaf=6.99795111e-09
booster[1504]:
0:leaf=6.99795111e-09
booster[1505]:
0:leaf=6.99795111e-09
booster[1506]:
0:leaf=6.99795111e-09
booster[1507]:
0:leaf=6.99795111e-09
booster[1508]:
0:leaf=6.99795111e-09
booster[1509]:
0:leaf=6.99795111e-09
booster[1510]:
0:leaf=6.99795111e-09
booster[1511]:
0:leaf=6.99795111e-09
booster[1512]:
0:leaf=6.99795111e-09
booster[1513]:
0:leaf=6.99795111e-09
booster[1514]:
0:leaf=6.99795111e-09
booster[1515]:
0:leaf=6.99795111e-09
booster[1516]:
0:leaf=6.99795111e-09
booster[1517]:
0:leaf=6.99795111e-09
booster[1518]:
0:leaf=6.99795111e-09
booster[1519]:
0:leaf=6.99795111e-09
booster[1520]:
0:leaf=6.99795111e-09
booster[1521]:
0:leaf=6.99795111e-09
booster[1522]:
0:leaf=6.99795111e-09
booster[1523]:
0:leaf=6.99795111e-09
booster[1524]:
0:leaf=6.99795111e-09
booster[1525]:
0:leaf=6.99795111e-09
booster[1526]:
0:leaf=6.99795111e-09
booster[1527]:
0:leaf=6.99795111e-09
booster[1528]:
0:leaf=6.99795111e-09
booster[1529]:
0:leaf=6.99795111e-09
booster[1530]:
0:leaf=6.99795111e-09
booster[1531]:
0:leaf=6.99795111e-09
booster[1532]:
0:leaf=6.99795111e-09
booster[1533]:
0:leaf=6.99795111e-09
booster[1534]:
0:leaf=6.99795111e-09
booster[1535]:
0:leaf=6.99795111e-09
booster[1536]:
0:leaf=6.99795111e-09
booster[1537]:
0:leaf=6.99795111e-09
booster[1538]:
0:leaf=6.99795111e-09
booster[1539]:
0:leaf=6.99795111e-09
booster[1540]:
0:leaf=6.99795111e-09
booster[1541]:
0:leaf=6.99795111e-09
booster[1542]:
0:leaf=6.99795111e-09
booster[1543]:
0:leaf=6.99795111e-09
booster[1544]:
0:leaf=6.99795111e-09
booster[1545]:
0:leaf=6.99795111e-09
booster[1546]:
0:leaf=6.99795111e-09
booster[1547]:
0:leaf=6.99795111e-09
booster[1548]:
0:leaf=6.99795111e-09
booster[1549]:
0:leaf=6.99795111e-09
booster[1550]:
0:leaf=6.99795111e-09
booster[1551]:
0:leaf=6.99795111e-09
booster[1552]:
0:leaf=6.99795111e-09
booster[1553]:
0:leaf=6.99795111e-09
booster[1554]:
0:leaf=6.99795111e-09
booster[1555]:
0:leaf=6.99795111e-09
booster[1556]:
0:leaf=6.99795111e-09
booster[1557]:
0:leaf=6.99795111e-09
booster[1558]:
0:leaf=6.99795111e-09
booster[1559]:
0:leaf=6.99795111e-09
booster[1560]:
0:leaf=6.99795111e-09
booster[1561]:
0:leaf=6.99795111e-09
booster[1562]:
0:leaf=6.99795111e-09
booster[1563]:
0:leaf=6.99795111e-09
booster[1564]:
0:leaf=6.99795111e-09
booster[1565]:
0:leaf=6.99795111e-09
booster[1566]:
0:leaf=6.99795111e-09
booster[1567]:
0:leaf=6.99795111e-09
booster[1568]:
0:leaf=6.99795111e-09
booster[1569]:
0:leaf=6.99795111e-09
booster[1570]:
0:leaf=6.99795111e-09
booster[1571]:
0:leaf=6.99795111e-09
booster[1572]:
0:leaf=6.99795111e-09
booster[1573]:
0:leaf=6.99795111e-09
booster[1574]:
0:leaf=6.99795111e-09
booster[1575]:
0:leaf=6.99795111e-09
booster[1576]:
0:leaf=6.99795111e-09
booster[1577]:
0:leaf=6.99795111e-09
booster[1578]:
0:leaf=6.99795111e-09
booster[1579]:
0:leaf=6.99795111e-09
booster[1580]:
0:leaf=6.99795111e-09
booster[1581]:
0:leaf=6.99795111e-09
booster[1582]:
0:leaf=6.99795111e-09
booster[1583]:
0:leaf=6.99795111e-09
booster[1584]:
0:leaf=6.99795111e-09
booster[1585]:
0:leaf=6.99795111e-09
booster[1586]:
0:leaf=6.99795111e-09
booster[1587]:
0:leaf=6.99795111e-09
booster[1588]:
0:leaf=6.99795111e-09
booster[1589]:
0:leaf=6.99795111e-09
booster[1590]:
0:leaf=6.99795111e-09
booster[1591]:
0:leaf=6.99795111e-09
booster[1592]:
0:leaf=6.99795111e-09
booster[1593]:
0:leaf=6.99795111e-09
booster[1594]:
0:leaf=6.99795111e-09
booster[1595]:
0:leaf=6.99795111e-09
booster[1596]:
0:leaf=6.99795111e-09
booster[1597]:
0:leaf=6.99795111e-09
booster[1598]:
0:leaf=6.99795111e-09
booster[1599]:
0:leaf=6.99795111e-09
booster[1600]:
0:leaf=6.99795111e-09
booster[1601]:
0:leaf=6.99795111e-09
booster[1602]:
0:leaf=6.99795111e-09
booster[1603]:
0:leaf=6.99795111e-09
booster[1604]:
0:leaf=6.99795111e-09
booster[1605]:
0:leaf=6.99795111e-09
booster[1606]:
0:leaf=6.99795111e-09
booster[1607]:
0:leaf=6.99795111e-09
booster[1608]:
0:leaf=6.99795111e-09
booster[1609]:
0:leaf=6.99795111e-09
booster[1610]:
0:leaf=6.99795111e-09
booster[1611]:
0:leaf=6.99795111e-09
booster[1612]:
0:leaf=6.99795111e-09
booster[1613]:
0:leaf=6.99795111e-09
booster[1614]:
0:leaf=6.99795111e-09
booster[1615]:
0:leaf=6.99795111e-09
booster[1616]:
0:leaf=6.99795111e-09
booster[1617]:
0:leaf=6.99795111e-09
booster[1618]:
0:leaf=6.99795111e-09
booster[1619]:
0:leaf=6.99795111e-09
booster[1620]:
0:leaf=6.99795111e-09
booster[1621]:
0:leaf=6.99795111e-09
booster[1622]:
0:leaf=6.99795111e-09
booster[1623]:
0:leaf=6.99795111e-09
booster[1624]:
0:leaf=6.99795111e-09
booster[1625]:
0:leaf=6.99795111e-09
booster[1626]:
0:leaf=6.99795111e-09
booster[1627]:
0:leaf=6.99795111e-09
booster[1628]:
0:leaf=6.99795111e-09
booster[1629]:
0:leaf=6.99795111e-09
booster[1630]:
0:leaf=6.99795111e-09
booster[1631]:
0:leaf=6.99795111e-09
booster[1632]:
0:leaf=6.99795111e-09
booster[1633]:
0:leaf=6.99795111e-09
booster[1634]:
0:leaf=6.99795111e-09
booster[1635]:
0:leaf=6.99795111e-09
booster[1636]:
0:leaf=6.99795111e-09
booster[1637]:
0:leaf=6.99795111e-09
booster[1638]:
0:leaf=6.99795111e-09
booster[1639]:
0:leaf=6.99795111e-09
booster[1640]:
0:leaf=6.99795111e-09
booster[1641]:
0:leaf=6.99795111e-09
booster[1642]:
0:leaf=6.99795111e-09
booster[1643]:
0:leaf=6.99795111e-09
booster[1644]:
0:leaf=6.99795111e-09
booster[1645]:
0:leaf=6.99795111e-09
booster[1646]:
0:leaf=6.99795111e-09
booster[1647]:
0:leaf=6.99795111e-09
booster[1648]:
0:leaf=6.99795111e-09
booster[1649]:
0:leaf=6.99795111e-09
booster[1650]:
0:leaf=6.99795111e-09
booster[1651]:
0:leaf=6.99795111e-09
booster[1652]:
0:leaf=6.99795111e-09
booster[1653]:
0:leaf=6.99795111e-09
booster[1654]:
0:leaf=6.99795111e-09
booster[1655]:
0:leaf=6.99795111e-09
booster[1656]:
0:leaf=6.99795111e-09
booster[1657]:
0:leaf=6.99795111e-09
booster[1658]:
0:leaf=6.99795111e-09
booster[1659]:
0:leaf=6.99795111e-09
booster[1660]:
0:leaf=6.99795111e-09
booster[1661]:
0:leaf=6.99795111e-09
booster[1662]:
0:leaf=6.99795111e-09
booster[1663]:
0:leaf=6.99795111e-09
booster[1664]:
0:leaf=6.99795111e-09
booster[1665]:
0:leaf=6.99795111e-09
booster[1666]:
0:leaf=6.99795111e-09
booster[1667]:
0:leaf=6.99795111e-09
booster[1668]:
0:leaf=6.99795111e-09
booster[1669]:
0:leaf=6.99795111e-09
booster[1670]:
0:leaf=6.99795111e-09
booster[1671]:
0:leaf=6.99795111e-09
booster[1672]:
0:leaf=6.99795111e-09
booster[1673]:
0:leaf=6.99795111e-09
booster[1674]:
0:leaf=6.99795111e-09
booster[1675]:
0:leaf=6.99795111e-09
booster[1676]:
0:leaf=6.99795111e-09
booster[1677]:
0:leaf=6.99795111e-09
booster[1678]:
0:leaf=6.99795111e-09
booster[1679]:
0:leaf=6.99795111e-09
booster[1680]:
0:leaf=6.99795111e-09
booster[1681]:
0:leaf=6.99795111e-09
booster[1682]:
0:leaf=6.99795111e-09
booster[1683]:
0:leaf=6.99795111e-09
booster[1684]:
0:leaf=6.99795111e-09
booster[1685]:
0:leaf=6.99795111e-09
booster[1686]:
0:leaf=6.99795111e-09
booster[1687]:
0:leaf=6.99795111e-09
booster[1688]:
0:leaf=6.99795111e-09
booster[1689]:
0:leaf=6.99795111e-09
booster[1690]:
0:leaf=6.99795111e-09
booster[1691]:
0:leaf=6.99795111e-09
booster[1692]:
0:leaf=6.99795111e-09
booster[1693]:
0:leaf=6.99795111e-09
booster[1694]:
0:leaf=6.99795111e-09
booster[1695]:
0:leaf=6.99795111e-09
booster[1696]:
0:leaf=6.99795111e-09
booster[1697]:
0:leaf=6.99795111e-09
booster[1698]:
0:leaf=6.99795111e-09
booster[1699]:
0:leaf=6.99795111e-09
booster[1700]:
0:leaf=6.99795111e-09
booster[1701]:
0:leaf=6.99795111e-09
booster[1702]:
0:leaf=6.99795111e-09
booster[1703]:
0:leaf=6.99795111e-09
booster[1704]:
0:leaf=6.99795111e-09
booster[1705]:
0:leaf=6.99795111e-09
booster[1706]:
0:leaf=6.99795111e-09
booster[1707]:
0:leaf=6.99795111e-09
booster[1708]:
0:leaf=6.99795111e-09
booster[1709]:
0:leaf=6.99795111e-09
booster[1710]:
0:leaf=6.99795111e-09
booster[1711]:
0:leaf=6.99795111e-09
booster[1712]:
0:leaf=6.99795111e-09
booster[1713]:
0:leaf=6.99795111e-09
booster[1714]:
0:leaf=6.99795111e-09
booster[1715]:
0:leaf=6.99795111e-09
booster[1716]:
0:leaf=6.99795111e-09
booster[1717]:
0:leaf=6.99795111e-09
booster[1718]:
0:leaf=6.99795111e-09
booster[1719]:
0:leaf=6.99795111e-09
booster[1720]:
0:leaf=6.99795111e-09
booster[1721]:
0:leaf=6.99795111e-09
booster[1722]:
0:leaf=6.99795111e-09
booster[1723]:
0:leaf=6.99795111e-09
booster[1724]:
0:leaf=6.99795111e-09
booster[1725]:
0:leaf=6.99795111e-09
booster[1726]:
0:leaf=6.99795111e-09
booster[1727]:
0:leaf=6.99795111e-09
booster[1728]:
0:leaf=6.99795111e-09
booster[1729]:
0:leaf=6.99795111e-09
booster[1730]:
0:leaf=6.99795111e-09
booster[1731]:
0:leaf=6.99795111e-09
booster[1732]:
0:leaf=6.99795111e-09
booster[1733]:
0:leaf=6.99795111e-09
booster[1734]:
0:leaf=6.99795111e-09
booster[1735]:
0:leaf=6.99795111e-09
booster[1736]:
0:leaf=6.99795111e-09
booster[1737]:
0:leaf=6.99795111e-09
booster[1738]:
0:leaf=6.99795111e-09
booster[1739]:
0:leaf=6.99795111e-09
booster[1740]:
0:leaf=6.99795111e-09
booster[1741]:
0:leaf=6.99795111e-09
booster[1742]:
0:leaf=6.99795111e-09
booster[1743]:
0:leaf=6.99795111e-09
booster[1744]:
0:leaf=6.99795111e-09
booster[1745]:
0:leaf=6.99795111e-09
booster[1746]:
0:leaf=6.99795111e-09
booster[1747]:
0:leaf=6.99795111e-09
booster[1748]:
0:leaf=6.99795111e-09
booster[1749]:
0:leaf=6.99795111e-09
booster[1750]:
0:leaf=6.99795111e-09
booster[1751]:
0:leaf=6.99795111e-09
booster[1752]:
0:leaf=6.99795111e-09
booster[1753]:
0:leaf=6.99795111e-09
booster[1754]:
0:leaf=6.99795111e-09
booster[1755]:
0:leaf=6.99795111e-09
booster[1756]:
0:leaf=6.99795111e-09
booster[1757]:
0:leaf=6.99795111e-09
booster[1758]:
0:leaf=6.99795111e-09
booster[1759]:
0:leaf=6.99795111e-09
booster[1760]:
0:leaf=6.99795111e-09
booster[1761]:
0:leaf=6.99795111e-09
booster[1762]:
0:leaf=6.99795111e-09
booster[1763]:
0:leaf=6.99795111e-09
booster[1764]:
0:leaf=6.99795111e-09
booster[1765]:
0:leaf=6.99795111e-09
booster[1766]:
0:leaf=6.99795111e-09
booster[1767]:
0:leaf=6.99795111e-09
booster[1768]:
0:leaf=6.99795111e-09
booster[1769]:
0:leaf=6.99795111e-09
booster[1770]:
0:leaf=6.99795111e-09
booster[1771]:
0:leaf=6.99795111e-09
booster[1772]:
0:leaf=6.99795111e-09
booster[1773]:
0:leaf=6.99795111e-09
booster[1774]:
0:leaf=6.99795111e-09
booster[1775]:
0:leaf=6.99795111e-09
booster[1776]:
0:leaf=6.99795111e-09
booster[1777]:
0:leaf=6.99795111e-09
booster[1778]:
0:leaf=6.99795111e-09
booster[1779]:
0:leaf=6.99795111e-09
booster[1780]:
0:leaf=6.99795111e-09
booster[1781]:
0:leaf=6.99795111e-09
booster[1782]:
0:leaf=6.99795111e-09
booster[1783]:
0:leaf=6.99795111e-09
booster[1784]:
0:leaf=6.99795111e-09
booster[1785]:
0:leaf=6.99795111e-09
booster[1786]:
0:leaf=6.99795111e-09
booster[1787]:
0:leaf=6.99795111e-09
booster[1788]:
0:leaf=6.99795111e-09
booster[1789]:
0:leaf=6.99795111e-09
booster[1790]:
0:leaf=6.99795111e-09
booster[1791]:
0:leaf=6.99795111e-09
booster[1792]:
0:leaf=6.99795111e-09
booster[1793]:
0:leaf=6.99795111e-09
booster[1794]:
0:leaf=6.99795111e-09
booster[1795]:
0:leaf=6.99795111e-09
booster[1796]:
0:leaf=6.99795111e-09
booster[1797]:
0:leaf=6.99795111e-09
booster[1798]:
0:leaf=6.99795111e-09
booster[1799]:
0:leaf=6.99795111e-09
booster[1800]:
0:leaf=6.99795111e-09
booster[1801]:
0:leaf=6.99795111e-09
booster[1802]:
0:leaf=6.99795111e-09
booster[1803]:
0:leaf=6.99795111e-09
booster[1804]:
0:leaf=6.99795111e-09
booster[1805]:
0:leaf=6.99795111e-09
booster[1806]:
0:leaf=6.99795111e-09
booster[1807]:
0:leaf=6.99795111e-09
booster[1808]:
0:leaf=6.99795111e-09
booster[1809]:
0:leaf=6.99795111e-09
booster[1810]:
0:leaf=6.99795111e-09
booster[1811]:
0:leaf=6.99795111e-09
booster[1812]:
0:leaf=6.99795111e-09
booster[1813]:
0:leaf=6.99795111e-09
booster[1814]:
0:leaf=6.99795111e-09
booster[1815]:
0:leaf=6.99795111e-09
booster[1816]:
0:leaf=6.99795111e-09
booster[1817]:
0:leaf=6.99795111e-09
booster[1818]:
0:leaf=6.99795111e-09
booster[1819]:
0:leaf=6.99795111e-09
booster[1820]:
0:leaf=6.99795111e-09
booster[1821]:
0:leaf=6.99795111e-09
booster[1822]:
0:leaf=6.99795111e-09
booster[1823]:
0:leaf=6.99795111e-09
booster[1824]:
0:leaf=6.99795111e-09
booster[1825]:
0:leaf=6.99795111e-09
booster[1826]:
0:leaf=6.99795111e-09
booster[1827]:
0:leaf=6.99795111e-09
booster[1828]:
0:leaf=6.99795111e-09
booster[1829]:
0:leaf=6.99795111e-09
booster[1830]:
0:leaf=6.99795111e-09
booster[1831]:
0:leaf=6.99795111e-09
booster[1832]:
0:leaf=6.99795111e-09
booster[1833]:
0:leaf=6.99795111e-09
booster[1834]:
0:leaf=6.99795111e-09
booster[1835]:
0:leaf=6.99795111e-09
booster[1836]:
0:leaf=6.99795111e-09
booster[1837]:
0:leaf=6.99795111e-09
booster[1838]:
0:leaf=6.99795111e-09
booster[1839]:
0:leaf=6.99795111e-09
booster[1840]:
0:leaf=6.99795111e-09
booster[1841]:
0:leaf=6.99795111e-09
booster[1842]:
0:leaf=6.99795111e-09
booster[1843]:
0:leaf=6.99795111e-09
booster[1844]:
0:leaf=6.99795111e-09
booster[1845]:
0:leaf=6.99795111e-09
booster[1846]:
0:leaf=6.99795111e-09
booster[1847]:
0:leaf=6.99795111e-09
booster[1848]:
0:leaf=6.99795111e-09
booster[1849]:
0:leaf=6.99795111e-09
booster[1850]:
0:leaf=6.99795111e-09
booster[1851]:
0:leaf=6.99795111e-09
booster[1852]:
0:leaf=6.99795111e-09
booster[1853]:
0:leaf=6.99795111e-09
booster[1854]:
0:leaf=6.99795111e-09
booster[1855]:
0:leaf=6.99795111e-09
booster[1856]:
0:leaf=6.99795111e-09
booster[1857]:
0:leaf=6.99795111e-09
booster[1858]:
0:leaf=6.99795111e-09
booster[1859]:
0:leaf=6.99795111e-09
booster[1860]:
0:leaf=6.99795111e-09
booster[1861]:
0:leaf=6.99795111e-09
booster[1862]:
0:leaf=6.99795111e-09
booster[1863]:
0:leaf=6.99795111e-09
booster[1864]:
0:leaf=6.99795111e-09
booster[1865]:
0:leaf=6.99795111e-09
booster[1866]:
0:leaf=6.99795111e-09
booster[1867]:
0:leaf=6.99795111e-09
booster[1868]:
0:leaf=6.99795111e-09
booster[1869]:
0:leaf=6.99795111e-09
booster[1870]:
0:leaf=6.99795111e-09
booster[1871]:
0:leaf=6.99795111e-09
booster[1872]:
0:leaf=6.99795111e-09
booster[1873]:
0:leaf=6.99795111e-09
booster[1874]:
0:leaf=6.99795111e-09
booster[1875]:
0:leaf=6.99795111e-09
booster[1876]:
0:leaf=6.99795111e-09
booster[1877]:
0:leaf=6.99795111e-09
booster[1878]:
0:leaf=6.99795111e-09
booster[1879]:
0:leaf=6.99795111e-09
booster[1880]:
0:leaf=6.99795111e-09
booster[1881]:
0:leaf=6.99795111e-09
booster[1882]:
0:leaf=6.99795111e-09
booster[1883]:
0:leaf=6.99795111e-09
booster[1884]:
0:leaf=6.99795111e-09
booster[1885]:
0:leaf=6.99795111e-09
booster[1886]:
0:leaf=6.99795111e-09
booster[1887]:
0:leaf=6.99795111e-09
booster[1888]:
0:leaf=6.99795111e-09
booster[1889]:
0:leaf=6.99795111e-09
booster[1890]:
0:leaf=6.99795111e-09
booster[1891]:
0:leaf=6.99795111e-09
booster[1892]:
0:leaf=6.99795111e-09
booster[1893]:
0:leaf=6.99795111e-09
booster[1894]:
0:leaf=6.99795111e-09
booster[1895]:
0:leaf=6.99795111e-09
booster[1896]:
0:leaf=6.99795111e-09
booster[1897]:
0:leaf=6.99795111e-09
booster[1898]:
0:leaf=6.99795111e-09
booster[1899]:
0:leaf=6.99795111e-09
booster[1900]:
0:leaf=6.99795111e-09
booster[1901]:
0:leaf=6.99795111e-09
booster[1902]:
0:leaf=6.99795111e-09
booster[1903]:
0:leaf=6.99795111e-09
booster[1904]:
0:leaf=6.99795111e-09
booster[1905]:
0:leaf=6.99795111e-09
booster[1906]:
0:leaf=6.99795111e-09
booster[1907]:
0:leaf=6.99795111e-09
booster[1908]:
0:leaf=6.99795111e-09
booster[1909]:
0:leaf=6.99795111e-09
booster[1910]:
0:leaf=6.99795111e-09
booster[1911]:
0:leaf=6.99795111e-09
booster[1912]:
0:leaf=6.99795111e-09
booster[1913]:
0:leaf=6.99795111e-09
booster[1914]:
0:leaf=6.99795111e-09
booster[1915]:
0:leaf=6.99795111e-09
booster[1916]:
0:leaf=6.99795111e-09
booster[1917]:
0:leaf=6.99795111e-09
booster[1918]:
0:leaf=6.99795111e-09
booster[1919]:
0:leaf=6.99795111e-09
booster[1920]:
0:leaf=6.99795111e-09
booster[1921]:
0:leaf=6.99795111e-09
booster[1922]:
0:leaf=6.99795111e-09
booster[1923]:
0:leaf=6.99795111e-09
booster[1924]:
0:leaf=6.99795111e-09
booster[1925]:
0:leaf=6.99795111e-09
booster[1926]:
0:leaf=6.99795111e-09
booster[1927]:
0:leaf=6.99795111e-09
booster[1928]:
0:leaf=6.99795111e-09
booster[1929]:
0:leaf=6.99795111e-09
booster[1930]:
0:leaf=6.99795111e-09
booster[1931]:
0:leaf=6.99795111e-09
booster[1932]:
0:leaf=6.99795111e-09
booster[1933]:
0:leaf=6.99795111e-09
booster[1934]:
0:leaf=6.99795111e-09
booster[1935]:
0:leaf=6.99795111e-09
booster[1936]:
0:leaf=6.99795111e-09
booster[1937]:
0:leaf=6.99795111e-09
booster[1938]:
0:leaf=6.99795111e-09
booster[1939]:
0:leaf=6.99795111e-09
booster[1940]:
0:leaf=6.99795111e-09
booster[1941]:
0:leaf=6.99795111e-09
booster[1942]:
0:leaf=6.99795111e-09
booster[1943]:
0:leaf=6.99795111e-09
booster[1944]:
0:leaf=6.99795111e-09
booster[1945]:
0:leaf=6.99795111e-09
booster[1946]:
0:leaf=6.99795111e-09
booster[1947]:
0:leaf=6.99795111e-09
booster[1948]:
0:leaf=6.99795111e-09
booster[1949]:
0:leaf=6.99795111e-09
booster[1950]:
0:leaf=6.99795111e-09
booster[1951]:
0:leaf=6.99795111e-09
booster[1952]:
0:leaf=6.99795111e-09
booster[1953]:
0:leaf=6.99795111e-09
booster[1954]:
0:leaf=6.99795111e-09
booster[1955]:
0:leaf=6.99795111e-09
booster[1956]:
0:leaf=6.99795111e-09
booster[1957]:
0:leaf=6.99795111e-09
booster[1958]:
0:leaf=6.99795111e-09
booster[1959]:
0:leaf=6.99795111e-09
booster[1960]:
0:leaf=6.99795111e-09
booster[1961]:
0:leaf=6.99795111e-09
booster[1962]:
0:leaf=6.99795111e-09
booster[1963]:
0:leaf=6.99795111e-09
booster[1964]:
0:leaf=6.99795111e-09
booster[1965]:
0:leaf=6.99795111e-09
booster[1966]:
0:leaf=6.99795111e-09
booster[1967]:
0:leaf=6.99795111e-09
booster[1968]:
0:leaf=6.99795111e-09
booster[1969]:
0:leaf=6.99795111e-09
booster[1970]:
0:leaf=6.99795111e-09
booster[1971]:
0:leaf=6.99795111e-09
booster[1972]:
0:leaf=6.99795111e-09
booster[1973]:
0:leaf=6.99795111e-09
booster[1974]:
0:leaf=6.99795111e-09
booster[1975]:
0:leaf=6.99795111e-09
booster[1976]:
0:leaf=6.99795111e-09
booster[1977]:
0:leaf=6.99795111e-09
booster[1978]:
0:leaf=6.99795111e-09
booster[1979]:
0:leaf=6.99795111e-09
booster[1980]:
0:leaf=6.99795111e-09
booster[1981]:
0:leaf=6.99795111e-09
booster[1982]:
0:leaf=6.99795111e-09
booster[1983]:
0:leaf=6.99795111e-09
booster[1984]:
0:leaf=6.99795111e-09
booster[1985]:
0:leaf=6.99795111e-09
booster[1986]:
0:leaf=6.99795111e-09
booster[1987]:
0:leaf=6.99795111e-09
booster[1988]:
0:leaf=6.99795111e-09
booster[1989]:
0:leaf=6.99795111e-09
booster[1990]:
0:leaf=6.99795111e-09
booster[1991]:
0:leaf=6.99795111e-09
booster[1992]:
0:leaf=6.99795111e-09
booster[1993]:
0:leaf=6.99795111e-09
booster[1994]:
0:leaf=6.99795111e-09
booster[1995]:
0:leaf=6.99795111e-09
booster[1996]:
0:leaf=6.99795111e-09
booster[1997]:
0:leaf=6.99795111e-09
booster[1998]:
0:leaf=6.99795111e-09
booster[1999]:
0:leaf=6.99795111e-09
